1118 300
0 0.0010086858 -0.13025483 0.10473952 -0.06382444 0.07022978 0.08633356 0.21709777 0.0874006 0.09733142 0.0789154 0.02381542 -0.25228631 0.05105321 0.06049553 0.084736146 -0.060316324 0.073069826 -0.076547906 0.050870117 0.21296985 0.013516903 0.011184672 -0.015539263 0.0127462195 -0.04526506 0.068538904 -0.06354506 -0.06439484 -0.045433857 0.09588546 0.06923532 0.019027974 -0.016168203 -0.014939045 -0.0020163653 -0.09505137 -0.15432182 -0.06937019 -0.020925816 0.0061871307 0.24400595 0.0055092038 -0.16321188 -0.1563391 0.024119826 -0.039121304 -0.09652848 -0.006981964 0.009113017 -0.059189834 0.027027002 0.099091336 0.06307692 0.014716856 0.008953151 0.12134214 0.040465567 -0.05751456 0.025350451 -0.08582153 0.025345745 -0.02487387 -0.1188173 0.0205644 0.041263413 -0.10042305 0.025501182 0.055317827 -0.023165112 0.034128577 0.027967414 0.0077288086 0.12954219 0.14717212 -0.112097606 -0.039869186 0.089147136 -0.02373446 -0.09254459 -0.106514916 -0.08196771 -0.048713442 -0.047996953 0.0663054 0.09391627 -0.15267664 0.06386242 0.015716316 -0.06232248 -0.110787675 -0.016568488 -0.08018937 0.18547693 -0.009472429 -0.15426509 -0.10606368 -0.01315512 -0.1089713 -0.010457635 -0.11218188 -0.030370273 -0.0581605 -0.1329808 -0.0005618812 -0.08347894 -0.075510964 0.22766434 -0.034168027 -0.012865918 -0.12432281 0.11799955 -0.079758726 0.08954839 -0.023329312 0.17111611 0.013231032 -0.060741752 -0.00023532248 0.059185825 -0.09648324 -0.039640706 0.009905607 -0.044285007 0.04522647 0.06680672 0.098685116 0.10047896 -0.06653231 -0.047932338 0.019776894 -0.02095171 -0.04749823 -0.064790025 -0.090707846 -0.13859676 -0.045589693 0.03681023 -0.106675975 0.057791267 -0.11730776 0.026613513 0.08620163 0.09451297 -0.08952815 0.20446923 0.0154644335 -0.0012082525 0.086203754 -0.1785335 -0.032541573 -0.15603824 0.051434405 0.029384585 0.037858464 -0.14264208 0.08400964 -0.031045346 -0.002834777 -0.08369545 0.052138574 -0.061676525 -0.035087757 -0.040078312 -0.104056045 0.0002693848 0.051328115 0.066142656 0.012460933 0.14261502 0.09584834 0.091615774 -0.124595754 -0.0124163795 0.09646825 -0.07154611 -0.014277272 -0.08722919 0.07067131 0.012358992 -0.007365114 -0.030550348 0.00287286 0.09034238 -0.08778981 -0.02893816 -0.14434202 -0.018828986 -0.041173324 0.061715323 0.068350755 -0.14692822 0.07356631 -0.12978329 -0.02598805 -0.05649308 -0.08988807 0.049759056 0.009198557 0.03443699 0.0015534197 -0.053593036 0.04479701 0.14849797 0.07768088 0.072192304 -0.12594439 0.14236319 0.0188109 -0.18640912 0.030529283 0.12080152 -0.006671738 -0.06928585 -0.04152496 0.013624465 -0.08295226 0.13008921 -0.07759382 -0.105454236 -0.11275707 0.06827381 0.18929675 -0.046327982 -0.04753123 0.073758006 -0.10779437 -0.03252437 -0.06749552 -0.03523424 -0.020453101 -0.030939516 -0.13403746 0.09785572 -0.13015665 0.03635596 -0.053524815 0.081325985 0.010861347 0.1041697 -0.09035948 0.0065756687 -0.15623543 0.03370643 0.07881919 0.133098 -0.13133536 -0.12537713 0.118259296 -0.10233563 0.04907234 0.0003514095 -0.008280053 0.04980866 0.12775937 0.025685374 -0.10060326 0.012599291 -0.1507234 0.08786777 0.07369116 -0.17499667 0.010810321 -0.0139692165 0.19644643 -0.12836578 -0.16394138 0.034647692 -0.018619787 -0.14291328 0.14485766 -0.03021815 -0.07225857 0.006812739 0.025398023 -0.07182039 -0.076914296 -0.0035386267 -0.14621048 0.034027845 0.03310199 0.044956688 0.059271492 -0.03555184 0.047211096 0.02827731 -0.063547105 0.016948413 -0.07436552 -0.12437209 -0.02781256 -0.19959135 -0.02212867 0.01035413 -0.04823702 -0.081776135 0.09765096 0.08169903 0.24234627 -0.067619234 -0.02039996
819 -0.012765327 -0.18885536 0.07801143 -0.15138556 0.06972221 0.12352864 0.17448872 0.1201579 0.063615546 0.121939845 -0.01338997 -0.17223318 0.11560647 0.07347136 0.02238275 -0.039009456 0.13366088 -0.09728983 -0.01605047 0.28069782 -0.031162875 0.051170427 -0.11616044 -0.0052048983 -0.06932572 0.16522202 -0.09493176 -0.14556974 -0.11442584 0.04219353 0.03344668 0.054737173 -0.11626593 -0.00058110175 -0.0032787048 -0.16100092 -0.18909965 -0.10504666 -0.008750681 0.027364766 0.2000657 -0.03047211 -0.19295532 -0.27636588 0.0067420774 -0.058405593 0.040907104 -0.0230182 0.00066034746 -0.04954729 -0.03565444 0.13340548 0.12889457 -0.008940999 0.067908205 0.24052712 0.16103981 -0.07186912 -0.04843384 -0.103719644 0.13734202 -0.05218246 -0.079095356 -0.06859543 0.093112335 -0.09014468 0.06458321 0.024621654 -0.18128724 0.09104249 0.086402394 0.0037995183 0.027762847 0.0907237 -0.13196114 -0.058472335 0.15525076 -0.16619204 -0.11316952 -0.04262264 -0.15952998 -0.08384902 -0.02976662 0.14495812 0.12477995 -0.052951403 0.058372665 -0.06668183 -0.11383251 -0.13854949 -0.057474058 -0.17320779 0.2651955 -0.1085993 -0.10758825 -0.07779562 0.010658024 -0.2019656 0.027756387 -0.103141986 -0.102244996 -0.041177373 -0.18426803 0.00031965788 -0.10123934 -0.11791395 0.34085655 -0.08247217 0.020176418 -0.09795868 0.22852354 -0.1497174 0.05188643 -0.04554852 0.16280544 0.01597928 -0.116175465 -0.01803461 0.12098949 -0.08143226 -0.026278893 -0.0790213 -0.0606101 0.064736456 0.071145646 0.101439 0.028160933 -0.047209986 0.0050506056 0.03199891 -0.07420769 0.11074622 -0.07539938 -0.17036232 -0.09849087 -0.13529827 0.08006911 0.015372663 0.0837515 -0.15819056 0.004872622 0.096758455 0.12034349 -0.055816907 0.089493126 -0.004996182 -0.055667948 0.22304273 -0.13481766 -0.026205754 -0.14021978 0.040608946 0.038959168 0.10587275 -0.1147792 0.016528692 0.003272658 -0.008187091 -0.012461647 0.0471599 -0.101638846 -0.16447635 0.037163034 -0.12028537 -0.11775922 0.06818808 0.06782272 -0.016876305 0.16325927 0.15768322 0.11912623 -0.25672296 -0.1063759 0.015200462 -0.08508077 0.007425589 -0.12087036 0.02387119 0.029713068 0.11105877 -0.050351594 -0.040312372 0.092235036 -0.15388085 -0.03525572 -0.2104424 -0.021908632 -0.04410553 -0.027493257 0.07330182 -0.06178282 -0.035420936 -0.15629652 0.0028631778 0.007175054 -0.12285954 -0.06713363 0.0586404 0.026229113 0.033294473 0.024758652 0.09427119 0.06881078 0.06744948 -0.02186333 -0.077677324 0.07006359 -0.049316805 -0.18571147 0.033084203 0.1303835 -0.02960411 -0.124752596 -0.06920473 0.1076055 -0.09909354 0.15083274 -0.034263056 -0.15295082 -0.08022521 0.115255944 0.18052103 0.013008478 -0.008013903 0.036987606 -0.13558763 -0.020079654 -0.049185973 -0.019113377 0.048428208 -0.093672015 -0.18267785 0.0724236 -0.22522327 0.0019907912 0.039758258 0.10356232 0.0709027 0.19644116 -0.1235634 -0.02542923 -0.15830596 0.0422384 0.05880653 0.10503203 -0.121884994 -0.19852759 0.15287468 -0.2560194 0.06615735 0.028636733 0.023175342 -0.0024814545 0.16500457 0.15610798 -0.08246739 -0.00025753124 -0.19152778 0.14323916 0.19946983 -0.26852846 0.027567856 -0.07695085 0.11434048 -0.08169749 -0.14132439 0.11570081 -0.043607175 -0.14216706 0.18365973 0.0114880875 0.0019865884 0.02827319 0.014066524 -0.021855177 -0.15870702 0.12423558 -0.16505298 0.0934055 0.04289245 0.046897355 0.0027720253 -0.067128755 0.024903137 0.025791971 -0.056427628 0.062365126 -0.22344667 -0.11730856 0.05960199 -0.17021173 -0.026058236 0.046771873 -0.14517206 -0.034006752 0.1692141 0.24533124 0.23383099 -0.054542296 0.0119411675
1059 -0.12604122 -0.020024508 -0.012076508 -0.040894773 -0.052166045 0.07887281 0.052692134 0.0315269 -0.12505443 0.17546144 -0.092932455 -0.06611492 0.11745162 -0.13756399 -0.09635071 0.13365516 -0.0026361411 0.080922306 -0.17812377 0.06731221 -0.036053278 0.17051083 -0.20823503 0.08888542 -0.10263614 0.14035325 -0.037032567 -0.023483878 -0.033338763 0.12487834 0.041480146 0.04950896 -0.025481015 -0.0743705 0.034245234 -0.07513011 -0.15010202 -0.17648804 0.014458121 0.0763765 -0.09595489 -0.17686659 -0.036628816 -0.2710739 0.27535304 -0.0035513474 0.14801805 0.05147591 -0.056082867 0.02326487 0.009982845 0.002920307 0.09575708 -0.10553021 0.028680211 0.12002927 0.079769604 -0.024990251 -0.07045245 -0.14792001 0.22172911 0.014624946 0.049441755 -0.11353816 -0.016253311 -0.06126362 0.096583724 -0.003069205 -0.17945385 0.25230387 0.17216183 0.04345906 -0.04498594 -0.074119546 -0.049937405 -0.09139839 0.09570229 -0.25610352 0.090895444 0.06589119 -0.22764392 -0.076533675 0.05837183 0.19092341 0.05391078 0.018163249 0.017646745 -0.19542402 -0.06560242 0.019368218 -0.15013047 -0.057110846 0.24208105 -0.113765195 0.028435024 -0.10529449 -0.08367753 -0.12405785 0.087631345 -0.04984741 -0.06093657 -0.091420464 -0.2395934 0.040277757 -0.008566607 -0.056975774 0.22846022 -0.035565063 -0.0040692776 0.0770942 0.15960772 -0.15326808 -0.06676285 0.008739375 0.13280544 -0.0065209283 -0.10298693 0.107721634 -0.033974398 -0.052610718 -0.07902228 -0.12600917 -0.002099659 0.104912415 0.0380225 0.05935435 -0.035352383 0.086316034 0.015375636 0.09893957 -0.08801637 0.06199524 -0.1812888 -0.08733139 0.020937443 -0.23609556 0.0346733 -0.067418374 0.1881138 -0.090723455 0.019235617 -0.011607937 0.12748082 0.014452911 -0.091739334 0.05210526 -0.071333714 0.15489487 0.018746229 0.110205814 0.015306071 -0.022234973 0.0005858986 0.21865675 0.043457687 -0.10162889 0.06636147 0.11550848 0.087972 0.07803259 -0.15045337 -0.23161472 0.094817474 0.065492876 -0.054784965 0.13982956 -0.060183004 -0.1466454 0.11608073 0.11829867 -0.032514885 -0.14614262 -0.13436912 0.119070806 -0.13509235 0.045843452 -0.04850393 -0.1599901 -0.08216598 0.105951704 -0.121978976 -0.11221975 0.02264811 -0.23868527 0.0450892 -0.14533828 -0.019384267 -0.078430615 0.005662681 0.005091487 0.16499487 -0.030885374 -0.15698974 0.05951913 -0.01535264 -0.061396144 -0.17145205 0.17569569 0.099992 -0.13827692 0.005149641 0.10213043 0.09756114 -0.09532713 -0.09476009 0.12827429 0.06587665 0.019099385 -0.08729487 0.09605527 0.14553368 -0.03398351 -0.15359676 -0.033550855 0.11727814 -0.18961151 -0.021786226 0.0119201625 -0.085996926 -0.036715023 0.093843445 0.023200922 0.05138408 -0.021316 0.010077485 -0.07732557 0.0339695 0.043436334 0.08434024 0.042990472 -0.027079972 -0.09147182 -0.043930475 -0.047939703 -0.13727365 -0.051268164 -0.024040276 0.0813316 0.10538613 -0.16120428 -0.1265473 -0.14178397 0.0433902 0.068911776 -0.035354 -0.06251097 -0.085983515 0.107259974 -0.09922279 0.11096031 0.083283655 0.064478226 -0.089282446 -0.09241019 0.12601283 0.10893166 0.058882408 0.042695653 0.0296993 0.14417557 -0.25056133 0.0020495665 -0.1006999 -0.032073792 0.13337813 -0.07095395 0.090313084 -0.101140894 -0.0083075175 0.021427203 -0.066909425 0.029574731 0.14245051 -0.04251291 0.013026647 -0.0648725 0.12524018 -0.08951305 0.049590062 0.024878526 -0.14468776 -0.06311918 0.07278527 -0.11741418 0.0065663424 0.009530056 0.09572616 -0.20179093 -0.08625442 0.13359387 -0.008774701 0.0901275 0.12961788 -0.022602731 0.08557032 0.15574895 0.27286306 0.051465146 -0.09486491 0.15696281
777 0.055045106 -0.09735487 0.049972694 -0.18628626 0.030748278 0.031818803 0.097475365 0.07860122 0.12987149 0.07376742 -0.014637964 -0.12273468 0.15661898 0.15119888 0.14509535 -0.089199245 0.16652952 -0.0013206153 -0.05736353 0.15135185 -0.11918354 0.015899107 0.020571198 -0.04060546 -0.053110443 0.12538981 -0.10286643 -0.09425609 -0.17468913 -0.031850375 -0.08574482 0.083700284 -0.21810979 0.094879106 -0.044284254 -0.08684374 -0.06715823 -0.009174783 -0.05006973 0.09061245 0.23437683 -0.0388806 -0.025358668 -0.18918598 -0.1295792 -0.03858783 0.15383033 -0.1490432 0.04128745 -0.02003087 -0.019287607 0.07955204 0.11157036 0.10708189 0.11566155 0.11772658 0.16970253 0.0026229678 -0.057649266 0.037754744 0.093944356 -0.03661929 -0.025752537 -0.14564128 0.124586195 -0.048513714 -0.07989719 0.031416137 -0.236285 -0.0616656 0.037248723 -0.07346445 -0.03544139 0.04928799 -0.037948113 -0.03235294 0.09525363 -0.10731537 -0.11722443 -0.06111957 -0.04915436 -0.08406089 -0.07963483 0.09570782 0.17060953 0.06459901 -0.0094440095 0.05572595 -0.120340675 -0.09512482 0.099204995 -0.18067124 0.25227985 -0.0894778 -0.02781152 0.010170177 0.11456313 -0.10881442 -0.013987203 0.100371204 -0.13781285 0.10957837 -0.081930816 -0.096419655 -0.12558112 -0.07174313 0.13990098 -0.15828303 0.05734471 -0.009455266 0.13748989 -0.21493746 0.05662244 -0.0345375 0.044762257 -0.13267876 -0.014211249 -0.012780859 0.14886229 0.046282634 0.015138916 0.044498388 -0.013348452 0.028736845 -0.016000558 0.05818795 0.027738998 -0.025918148 -0.05896523 -0.12444118 -0.053640205 0.111667715 -0.06682302 -0.11545709 -0.08388113 -0.04198907 0.102638215 0.14735894 -0.073956534 -0.12686503 -0.070230536 0.10820909 -0.00062665786 -0.015633594 0.06302687 -0.06101279 -0.11498136 0.22480208 0.003134807 -0.101613484 -0.03477989 -0.006519575 -0.06633104 0.117174536 -0.13446294 -0.06570287 -0.0071193743 -0.11382032 0.011422943 0.013517039 -0.04740996 -0.17921486 0.061898295 -0.14340703 -0.14137715 -0.077953644 0.15728725 -0.0808656 0.09000717 0.06736308 0.14343086 -0.16484255 -0.105529234 -0.117708005 0.0058716508 -0.0073422007 -0.15802881 0.13367845 0.012794801 0.16681226 0.0255651 -0.051070966 -0.102546155 -0.06496868 0.05377673 -0.20976405 0.112714544 0.050137352 -0.18053126 0.038316637 -0.10865678 -0.14315112 -0.07976725 0.008401031 0.013923752 -0.10471999 -0.07646581 -0.02576577 0.04144077 0.038376033 -0.02600218 0.012341731 -0.013022776 0.16466747 -0.12875053 -0.18581808 -0.07099943 -0.06285862 -0.05342304 0.040533155 -0.08056449 0.062320277 0.0052778795 -0.111772746 0.10192325 0.06274984 -0.017684491 -0.019096753 -0.12502335 0.07616716 0.060292676 0.08287815 0.019241156 0.03418546 -0.034449983 -0.12080133 -0.09978209 -0.0052012973 0.038057268 0.04531973 -0.07542965 -0.09471647 -0.04186456 -0.14910401 6.485246e-05 0.070627935 0.055567853 0.07562412 0.19949962 -0.011132731 0.025662888 -0.13316959 0.055607356 -0.06374378 0.13229792 0.013549965 -0.035335112 0.17137079 -0.2090497 0.011112349 -0.025334472 0.032605596 -0.034078766 0.091308676 0.22322765 -0.19241408 -0.08277442 -0.19079517 0.04285767 0.08478309 -0.15784337 -0.0047856523 -0.022888603 0.051926948 -0.060810998 -0.080599114 0.08961106 0.028008698 -0.058589507 0.20310791 -0.023071062 0.04961482 -0.043006033 -0.023196176 -0.06643117 -0.16609046 0.09124122 -0.041267984 0.03841739 -0.037208006 0.11425324 -0.0069273664 -0.055966873 -0.04285329 -0.025220197 0.006482984 0.05399312 -0.14169805 -0.008508645 0.063523754 -0.16384962 -0.06909332 0.0047649955 -0.14898703 -0.010068398 0.12815566 0.18171671 0.13596477 0.1579077 -0.0619285
562 0.056330316 -0.08919894 0.18746611 -0.16497397 -0.042594545 0.078619145 -0.10268995 0.033580072 0.044985082 -0.008115203 -0.03946665 -0.20006298 0.04387927 0.026918234 0.23607631 -0.024068056 0.14690354 0.09618387 -0.023715984 0.0816059 -0.091253914 -0.011888954 0.048616 -0.092737935 -0.024823444 0.067597486 -0.061604004 0.11852731 -0.0724244 0.0080171265 -0.17239551 0.0856837 -0.15870617 0.06397242 -0.094477214 -0.08218466 -0.078432605 0.0012744294 -0.043324415 0.064606875 0.16056699 -0.049979176 0.049334545 -0.03227159 -0.075627066 0.039537784 0.21376055 -0.103370406 0.029582975 0.0038271963 0.07930313 0.00053312787 0.10680902 0.15586773 0.058615588 -0.020945694 0.15716428 0.0445499 0.009257525 0.079275236 -0.004993983 0.013565098 0.18196604 -0.11065077 0.07578329 -0.04224208 -0.13497253 0.049377795 -0.07466636 -0.04201641 -0.034820616 -0.078421846 -0.016250206 -0.031999048 0.05534832 0.026964435 -0.0037067628 -0.0036003776 -0.048937887 0.042351443 -0.010567559 -0.04225479 -0.08950702 0.030533113 0.05498079 0.09642317 -0.06419162 0.076679036 -0.12784086 0.047764525 0.097098745 -0.13284798 0.15571986 -0.08386552 0.08187464 0.12133222 0.07298768 -0.038782183 0.0542878 0.0863965 -0.11123061 0.16902749 0.09114935 0.0457858 -0.0669661 0.021419853 0.048764735 -0.17418264 0.042176716 -0.013361886 0.05541377 -0.2076391 0.043103565 -0.018553399 0.00031817812 -0.21617736 0.09732396 0.099269256 0.054677196 0.117002785 -0.01558612 0.07447586 -0.00014675673 0.011537924 -0.06336393 -0.001870659 -0.031868458 0.050552484 -0.1382451 -0.07680743 -0.085544445 0.04589979 -0.035356157 -0.03466706 -0.08032191 0.037216526 0.021386813 0.14700012 -0.09790887 -0.049977805 0.009022419 0.054617297 -0.057860397 -0.13322935 0.011499504 -0.06772996 -0.16003187 0.08360211 0.09719877 -0.10468895 0.0088994065 -0.009714164 -0.06164327 0.08148821 -0.029292349 -0.073358014 -0.077226974 -0.113155 0.04812355 0.096258044 -0.052534133 -0.11776634 0.0118438 -0.07339408 -0.10537556 -0.1177899 0.12555075 -0.15883157 0.01773246 -0.03610057 0.07800982 -0.17509511 -0.16447267 -0.12860538 0.10142454 -0.08759877 -0.090833604 0.13312468 0.078692354 0.084629565 0.09595092 -0.056437284 -0.1773857 -0.037879772 0.04279901 -0.1493559 0.15309563 0.11283473 -0.19016652 -0.07193169 -0.117625 -0.13910761 -0.025870847 0.10872388 -0.051981743 -0.075342715 -0.07936646 -0.018896185 0.03638712 0.046622355 -0.057883658 -0.04333946 -0.096286625 0.2202423 -0.13639677 -0.20050536 -0.13011603 0.027016807 0.097593024 0.055115867 -0.13820127 0.06932412 0.093131654 -0.015039564 0.11554076 0.054256093 -0.12981582 0.07118097 0.040709347 0.14879017 -0.059690505 -0.02383007 -0.070649415 -0.009687762 -0.021871248 -0.05365755 -0.2004859 0.07737212 0.07290005 0.04060674 -0.024817308 -0.07624621 -0.032131173 0.09645608 -0.08228462 0.1516964 0.014732361 -0.013084415 0.11770178 0.17581072 0.017270848 -0.1166748 0.09842007 -0.1016236 0.14310077 0.12952337 0.078739665 0.10238331 -0.0021101777 -0.010006385 -0.05394849 -0.06349704 -0.049210846 -0.08514964 0.1501666 -0.18678387 -0.118079044 0.0183197 -0.052720528 -0.006613645 -0.018265007 0.08449672 0.0505102 -0.06806855 -0.122098036 0.03944381 0.034541134 0.094392136 0.028723136 0.020337041 -0.09461335 0.07051249 -0.010364825 -0.06984473 -0.14265706 0.007911139 0.092507765 -0.01560335 -0.09025406 -0.02606816 0.13407241 -0.087931916 -0.0513511 -0.15760218 -0.036781207 -0.02740916 0.040584035 -0.07230488 0.0023278133 0.020259354 -0.1523231 -0.005272581 -0.0119329095 -0.040941436 0.014522564 0.07850383 0.13220279 0.0543866 0.10765089 -0.014090973
739 -0.13556316 -0.0023858226 0.015888993 0.023938928 -0.045651294 0.078395955 0.05938149 0.038485102 -0.10211866 0.023394622 -0.08210166 0.0033492476 0.083436176 -0.10558868 -0.037325617 0.12966245 0.06465486 0.048985735 -0.15874396 0.050070718 -0.08173299 0.10841615 -0.18374853 -0.0122221215 -0.04456105 0.016457515 -0.009884285 0.012976709 -0.039525084 0.07354319 0.08731831 0.072002694 -0.054420073 -0.062249646 -0.056599397 -0.092965595 -0.070084505 -0.15980701 0.043888025 0.04699222 -0.09018889 -0.1163509 -0.036816407 -0.17282036 0.21484706 -0.038648557 0.03464704 -0.0009494926 -0.04055716 0.061792083 -0.045303043 -0.0040072943 0.05854565 -0.16696955 0.036121666 0.055966076 0.035037536 -0.039599422 -0.1372837 -0.08680415 0.110943206 0.031327035 0.019101324 -0.01611498 0.061669387 -0.036992893 0.17295612 -0.022185484 -0.10412721 0.14208049 0.2198906 0.031106336 0.005988079 -0.021869183 -0.07293189 -0.009886748 0.15008421 -0.1438639 0.076923504 0.01616235 -0.1403509 -0.14287877 0.035268735 0.09611264 0.12956642 0.023439901 0.036611907 -0.107055314 0.004107568 -0.012197733 -0.05350959 -0.059345968 0.13467298 -0.066453554 0.00901142 -0.01092955 -0.00700796 -0.07738639 0.053757664 -0.08736364 -0.15060906 -0.14382073 -0.18745929 -0.069631144 0.006676526 -0.035506554 0.16722885 0.00014854252 0.05964451 -0.019857273 0.0866372 -0.058403417 -0.065091886 0.04895381 0.07744932 -0.08846048 -0.07624938 0.0775271 -0.054008532 -0.13022366 -0.072130546 -0.047167618 -0.010139604 0.13478088 -0.0036517356 0.042944573 -0.092417456 0.012241878 -0.07371359 0.0457392 -0.103003725 0.031276073 -0.13850394 -0.074322306 0.05781932 -0.11245508 0.013535147 -0.09224377 0.10873793 -0.004636797 0.028290056 -0.025521535 0.19771232 0.043279298 -0.0423408 0.07241968 -0.08619749 0.14148211 0.037441947 0.027387174 0.036527194 0.0017735662 0.0515081 0.11427201 0.16591191 -0.07134655 -0.04845404 0.071678825 0.05773156 0.045118965 -0.103150666 -0.12439259 0.10158033 0.06563745 -0.04748226 -0.001095685 -0.038365263 -0.053799734 0.020379134 0.075360484 -0.006417101 -0.11195989 0.0070043732 0.049646217 -0.07793917 0.10383386 -0.00072777946 -0.12307897 -0.09986844 0.13368423 -0.15578948 -0.060555734 0.00981016 -0.19020067 -0.0937346 -0.05608963 0.021294136 -0.038205713 -0.02499126 -0.015755871 0.11608004 -0.08892192 -0.1404176 0.08219855 0.003448666 -0.068801604 -0.10843094 0.121379904 0.0046676258 -0.08108351 0.11907032 0.06399713 0.068688944 -0.10031798 -0.053760745 0.13567357 -0.011598878 -0.07414179 -0.12617108 0.12245341 0.04088304 -0.02581496 -0.179001 -0.031359617 0.18469304 -0.13406777 -0.09443381 -0.02331267 -0.111147076 -0.08812091 -0.026956398 -0.03837964 0.031814974 -0.026257142 0.017310552 -0.04875256 0.03800599 0.046574477 0.06843609 0.006314489 0.0068868934 -0.12296766 0.0036722322 -0.04675488 -0.06984689 0.022788951 -0.064368606 0.07206357 0.06795324 -0.097344264 -0.053712677 -0.116827436 0.044895563 0.011723938 -0.06824315 -0.017856125 -0.03697185 0.095387146 -0.10154899 0.029953955 0.06706197 0.1791722 -0.019623557 -0.072591566 0.11931192 0.19599578 0.03785873 0.06634467 0.018148085 0.07930026 -0.15883003 -0.041216075 -0.10379343 0.027603243 -0.03407568 -0.016381778 0.09164729 -0.099581435 -0.056393374 -0.063554145 -0.06859295 0.04965399 0.046281546 -0.09692685 -0.06947306 -0.106824264 0.0863769 -0.043926455 -0.034563385 0.0144783305 -0.08834122 -0.039380725 0.06438059 -0.023590405 -0.0024727082 0.05829718 0.0657364 -0.08015528 -0.040455878 0.12140939 0.007373506 -0.0071415645 0.08197948 -0.030188497 0.11128768 0.081187 0.13365424 0.060799573 -0.06719913 0.11587828
341 -0.033509098 -0.022228954 0.027524507 0.10407996 -0.030605754 -0.015239184 0.11090677 -0.048361 -0.061023936 0.21714547 -0.07622803 0.04844606 0.14269312 -0.119284116 -0.06883993 0.09052325 -0.01643212 0.15154704 -0.14609085 0.108385876 -0.11305051 0.037911743 -0.21536644 0.10669886 0.029047884 0.1183961 0.02061146 -0.059860382 0.09127362 0.05180419 -0.00040596552 0.11370244 -0.04247804 -0.0075289435 0.12543853 -0.11121283 -0.021063924 -0.012091724 -0.07374419 0.0060146926 -0.06833568 -0.082558535 -0.06539644 -0.13417079 0.1462187 0.05923801 0.087390326 -0.027872136 -0.06575063 -0.0139658395 0.05781338 -0.017811442 0.08422322 -0.0331934 0.034985133 0.13303022 -0.025743261 0.045276 0.007955759 -0.21012647 0.1858505 0.046976555 0.09762962 -0.12779306 -0.023941716 -0.060671356 0.001977842 -0.059353616 -0.0066195945 0.15753508 0.08440602 0.0010917935 0.016367288 0.018035417 -0.0106245065 -0.15770663 0.044886168 -0.11109062 0.12642033 0.05735817 -0.1181938 -0.042299226 0.14423074 0.12434209 0.034876864 -0.07399589 -0.0036261957 -0.1588462 0.004864997 -0.016778287 -0.10255958 -0.0039571193 0.14770433 -0.034894448 0.021393294 -0.11457077 -0.08462207 -0.10148739 0.0041520144 -0.06333593 -0.008413825 -0.11885466 -0.09276451 -0.018806946 -0.021560535 0.02131555 0.18054245 -0.073392 0.018276513 0.066512994 -0.011097208 -0.12037696 -0.004947124 -0.0056672557 0.0063231722 0.017630333 -0.1123705 0.05860383 0.007978639 0.015526886 0.011121953 -0.057489965 0.025945215 0.12957247 -0.032235503 0.07817724 -0.014744593 0.17729874 0.025815079 0.0935131 -0.088696614 0.013849595 -0.12625113 -0.022240723 0.032857127 -0.16520229 -0.0018017595 -0.011622261 0.06093974 0.032961342 0.064707644 0.0011419464 -0.012238946 0.023256911 -0.0071290787 0.01720531 0.090099245 0.16698761 0.036382712 0.12832014 0.020196714 0.051778432 0.010226187 0.11099855 0.071379736 0.0047871284 0.123710185 0.0124387 0.10510851 0.01978631 -0.14276996 -0.1441957 0.03516124 0.0154562965 -0.043128867 0.11309394 -0.10735185 -0.111892216 0.15410079 0.014680043 -0.01222046 -0.05711893 -0.07211007 0.0075254915 -0.058947645 0.011672652 -0.055302177 -0.0004321682 -0.087315 0.10883316 -0.06409804 -0.11326206 -0.0050528967 -0.12364694 -0.005468824 -0.09392765 0.051418822 0.017354755 0.057995655 -0.04587244 0.13509944 0.033927657 -0.07485757 -0.05640688 -0.019947698 -0.028244503 -0.13909903 0.020045102 0.13855378 -0.054202497 -0.10356349 0.15874098 -0.053538945 -0.06828018 -0.05647044 0.00805636 0.1453917 0.07208869 0.015494395 0.045994725 0.08895854 -0.007823383 -0.10590177 -0.05173521 0.010587372 -0.13980797 -0.05996984 0.09838642 -0.005053618 0.043760177 0.030438246 0.09761091 0.06549855 0.034012794 0.04781126 0.0007977185 0.021230103 -0.0067199594 0.105531335 0.044234652 0.093656585 0.002501991 -0.07604431 0.03501523 -0.020000637 -0.06862507 -0.042353835 -0.025358852 0.054986276 -0.051590037 -0.16547792 -0.036538552 0.09843143 -0.03585713 0.02624095 -0.068978384 0.040183097 -0.039507724 -0.020978823 0.012121294 0.06647761 0.05685097 -0.047165245 -0.121847935 0.07977387 0.019767802 -0.022051666 0.041918166 0.009404315 0.18917668 -0.2246326 -0.039511707 -0.12977122 -0.07087695 0.06397733 -0.098304875 0.08749374 -0.07819617 -0.08896149 0.0901858 -0.14564802 0.029054105 0.15130801 0.0049742083 0.08041082 0.060848393 0.0767052 -0.069622464 0.0065863295 0.16303837 -0.22678337 -0.0936649 -0.043742575 -0.14636278 0.0133199915 -0.010521519 0.08276185 -0.05894601 -0.08661005 0.04480593 -0.016346244 0.068608135 0.124976195 0.0017493984 0.08912666 0.15187655 0.15056379 -0.08430516 -0.054973748 0.0794254
196 -0.07681629 0.008598265 0.11588372 0.053301245 0.00957708 0.11192351 -0.10232358 -0.14850034 -0.14503768 0.074131206 -0.045638487 -0.16285911 0.032116387 0.0013856716 -0.08105463 0.056369696 -0.15013029 -0.06653198 -0.024822323 -0.15104459 -0.08128187 0.03356699 -0.038970098 0.1277493 0.08361381 0.11386642 0.089593165 0.09902543 -0.025132613 0.051252604 -0.16432968 -0.13062377 0.16613033 -0.07498253 -0.16464932 0.09582997 0.0619947 0.0067003043 -0.10726371 -0.018106073 -0.120233715 -0.196523 0.042142242 -0.013719254 0.12220608 -0.027757712 0.06768579 -0.02726132 -0.080230065 -0.07089868 0.009945847 0.19712749 0.051875222 -0.077745944 -0.035761986 0.017964277 0.013400049 -0.16728364 0.21598358 0.0060779396 0.08652207 0.16256565 0.016135994 -0.06453838 -0.19349015 -0.08906479 -0.016945338 0.03840003 -0.08398996 0.15027636 0.09325844 0.08702102 0.12053202 -0.12131846 -0.010683303 -0.026050266 0.070608824 -0.17835027 -0.08161127 -0.0068614352 -0.18297467 0.114123516 0.10038045 -0.02032769 -0.1932445 0.04640886 0.04173014 -0.10398011 -0.039547168 0.15548554 -0.053234678 0.18278801 -0.027806431 -0.00047835734 -0.020820238 -0.044267133 -0.21516754 0.060608495 0.18378988 0.19274536 0.11432303 0.1677271 -0.12735267 0.24428736 -0.01569907 0.077588215 0.12425051 0.042830825 -0.11396106 0.19941857 -0.00994231 -0.12908608 -0.021696132 -0.10032855 0.21827814 0.027585303 -0.0066057085 0.04046112 0.010849532 -0.14528309 -0.15409161 -0.16780001 0.04620627 -0.14110568 0.009432639 0.1038511 0.086014986 0.06469946 0.013381699 -0.028193785 0.06264571 0.10482468 -0.1641757 0.103697956 0.039454788 -0.06785124 0.008807762 0.10007504 0.07365523 0.13563134 0.075485624 -0.039720185 0.011844958 0.1389417 -0.018915465 0.037678152 -0.0023695037 0.09551459 0.09470272 -0.007032541 0.020520633 0.051377065 0.057187896 0.06755234 0.05695363 -0.06487069 -0.08837812 0.24586856 0.10962002 0.089118294 0.0016450951 -0.25790474 0.085603856 -0.028296836 -0.076120175 0.042879455 0.023209821 -0.15624882 0.15594576 -0.0027612601 -0.007108424 -0.06130064 -0.18936488 0.006257949 0.14776178 -0.1843985 -0.0766799 -0.024441201 0.021011602 0.0062802513 -0.108139195 -0.024512028 -0.1070319 -0.2893158 0.008694705 -0.25296775 0.22204898 -0.04855106 -0.07091279 -0.11684868 -0.0049612923 0.15820937 -0.07700392 0.1281294 0.087535396 -0.020557957 -0.0627384 0.16281976 0.061570518 -0.035376318 -0.12730591 0.0053477203 0.022453103 0.12362797 0.10540545 0.082095794 -0.018715957 -0.049828045 -0.033649 0.031914145 -0.15784104 0.037591543 -0.06566123 -0.04445445 0.045102783 -0.10534375 0.069085486 -0.0343524 0.096944466 -0.012845182 0.014242118 -0.061581016 -0.12580357 0.007838213 -0.035824694 -0.1520914 -0.0035447534 0.055067077 -0.03547326 0.11451845 -0.17683339 0.010381615 -0.036842115 0.124124095 -0.034478422 0.020343866 0.103508964 -0.022028271 0.032027822 -0.12255946 -0.072107494 -0.031515416 -0.02134453 -0.01829383 0.048401926 -0.09579659 0.123039365 0.114362836 0.19763374 -0.055128228 -0.20685841 0.089127466 -0.099735044 -0.090160936 0.05139759 -0.004908244 0.04626073 0.083521105 0.043384135 0.028206943 0.00012216673 0.08803585 -0.044743747 -0.053471673 0.10596006 0.098376796 0.1062127 0.027644653 0.09274052 -0.0034806707 0.0018082946 -0.051896688 0.16068116 -0.022265298 0.008710255 0.008973648 -0.18961155 0.13510531 -0.03153691 -0.20138639 0.078091905 -0.17515321 0.006556437 -0.025887178 0.19626342 0.09254143 -0.055915363 -0.1385071 -0.108012356 -0.019463098 0.06323896 -0.1502467 0.118017286 0.029680494 0.22616188 0.04469972 0.12519646 -0.09192616 0.08063466 -0.050149873
473 -0.057310816 0.021316135 0.08561929 -0.06406677 -0.023469973 0.104179494 0.020296391 -0.06403859 -0.19534667 0.12841663 -0.013810278 -0.006773889 0.009220131 -0.04230094 -0.07111968 0.098850034 -0.04067402 -0.0015320682 -0.090278804 -0.017805226 -0.039154325 0.054435525 -0.09360753 0.11160797 0.0034175776 0.03214416 0.055409055 0.009700731 -0.08647759 0.048558265 -0.013611559 -0.051540636 0.09178072 -0.079370484 -0.023167726 0.05632571 -0.0462343 -0.04068612 -0.109278955 -0.015475969 -0.09303239 -0.16180132 0.017060209 -0.087743185 0.22504927 -0.040553804 0.12355778 0.043826647 -0.049267083 0.087616764 0.030961918 0.1540953 0.036902674 -0.027893726 0.025441403 0.116598435 0.044220015 -0.11658493 0.057747304 -0.011319623 0.22984058 0.118628085 0.011999635 -0.011177652 -0.09412678 -0.01722541 0.038766313 0.034942463 -0.1258215 0.21111314 0.09523518 0.02096149 0.018847035 -0.0479921 -0.014666103 -0.04027503 -0.003606171 -0.1248517 -0.032686885 -0.019225426 -0.12006685 0.04198779 0.1718444 0.1284266 -0.029053653 0.04418743 0.01475593 -0.12268241 -0.08783693 0.09028282 -0.1351608 0.054016434 0.05270789 -0.06261267 0.012382774 -0.11928652 -0.08756028 -0.016453091 0.07961886 0.02538509 -0.0023504756 -0.026751192 -0.23634347 0.10045514 -0.05577945 0.0034777315 0.14103109 -0.007835316 -0.06011762 0.13623022 0.0811642 -0.10630823 -0.022866182 -0.04717511 0.15866487 0.04392307 -0.022019057 -0.0088390345 0.024651036 -0.10908006 -0.1772435 -0.0919313 0.078967445 -0.06266032 0.043671977 0.079727866 0.02814384 0.10086109 0.11564345 0.122375436 0.043562915 0.1485904 -0.24536896 -0.014381572 -0.005836693 -0.20534956 -0.044495787 -0.08031042 0.16543654 0.03834272 -0.0001402818 -0.049656548 0.10934034 0.06531659 -0.11962747 0.014080997 -0.09893587 0.16623314 0.04316708 0.07864733 -0.0013427356 0.017788203 -0.021728223 0.0805797 -0.058000825 -0.04723851 -0.019033171 0.09275822 0.07540172 0.02017928 0.01689386 -0.28034544 0.07772495 -0.023115708 -0.03287547 0.015949422 0.013425583 -0.16267082 0.02498038 0.17946655 -0.04421623 -0.073780455 -0.07744553 0.052070342 0.018473197 -0.1008479 -0.054924626 -0.17577875 0.010480548 0.04337336 -0.083145134 -0.055403866 0.0388155 -0.30347204 0.035940416 -0.14494184 0.08891897 -0.085841276 -0.012930059 -0.093274795 0.17355815 0.07982376 -0.13449873 0.048357654 0.020777434 0.019087676 -0.053989813 0.08648466 -0.04274874 -0.045013994 -0.035933834 -0.035445683 0.10050367 0.017331919 0.048425153 0.044254486 0.01586004 0.048550252 -0.045833677 0.08831119 -0.06557926 0.013039571 -0.105187036 -0.028740082 0.004419057 -0.04531217 0.05710648 -0.011937967 -0.0020860904 -0.0475202 -0.008977813 -0.022092279 -0.008519463 0.07560167 -0.0018246713 -0.058307283 0.06510507 0.038944565 0.0015727964 0.028517669 -0.11353781 -0.0671388 -0.044131145 0.07031943 -0.04726891 0.039600242 0.07310084 -0.030144101 -0.008553697 -0.1617795 -0.05936853 0.002616459 0.008912871 0.06821766 -0.011400587 -0.073994435 0.0027752905 0.09365784 0.0051831403 -0.011013807 -0.048038527 0.07849682 -0.13335541 -0.046323657 0.1225442 0.06810778 0.053813264 0.04858982 0.0060409224 0.10124855 -0.13131726 0.07437965 -0.09538989 0.010356778 0.09839734 0.064398125 0.12401749 -0.060099088 0.012735066 0.008244055 -0.045183312 0.011969336 0.1365117 -0.093143485 0.012260039 -0.07195573 -0.02661476 -0.023143746 0.10528537 -0.08589478 -0.096020974 -0.1851703 0.013968925 0.008001219 0.071860746 0.016651662 0.012236427 -0.1546624 -0.07115571 -0.008677627 0.031810928 -0.085491955 0.0233343 -0.041715614 0.05501778 -0.009751825 0.17000857 -0.05149505 -0.05081398 0.028563628
642 -0.076823115 0.06305095 -0.07786933 -0.040291872 -0.05802124 0.063854076 0.00031046927 0.023176866 -0.06798424 0.06184786 -0.06919343 0.0285264 0.06140237 -0.13168603 -0.027167512 0.10238719 -0.022624625 0.07205969 -0.061810583 -0.029361308 -0.014822797 0.23023812 -0.06036595 -0.068480834 -0.10995664 0.07632106 -0.012042018 -0.05081302 -0.08237892 0.065819815 0.01340919 0.1319789 0.016439712 0.015323223 0.007929551 -0.0535696 -0.1400239 -0.14092404 0.06100443 0.1504125 -0.097424254 -0.1774803 -0.060504686 -0.23640025 0.18806687 -0.023781272 0.046075106 0.028111778 -0.057190083 0.10042415 0.004897199 -0.015404533 0.082862124 -0.047754984 -0.021620665 -0.045856617 0.07341757 0.06085508 -0.033745892 -0.10635311 0.0936457 0.014050146 0.023130318 -0.1467858 0.010991567 -0.035793666 0.08505977 0.09100885 -0.11676272 0.12334083 0.12464098 0.040169436 -0.049027093 -0.007038629 -0.0018195289 -0.09381131 0.17858945 -0.16226034 0.16217722 0.07589811 -0.09844427 -0.014261501 0.024994738 0.15604617 0.065126635 0.00032362228 -0.073417455 -0.20714925 0.024197705 -0.012348551 -0.05124982 -0.058095977 0.29555014 -0.09839516 0.017418362 -0.08894721 -0.077394284 -0.16149043 0.11103299 -0.060258172 -0.10502858 -0.016591225 -0.23372261 -0.055514358 -0.07150655 0.057535123 0.12288776 -0.016866265 -0.027515166 0.0318253 0.18909849 -0.041706465 -0.079772405 0.022122633 0.064033575 0.034258306 -0.052117646 0.075239554 0.008287359 0.014768028 -0.068562336 -0.122242294 -0.0130769005 0.040264837 -0.029820051 -0.01966351 -0.027204996 0.0241908 0.054719824 0.067146696 -0.12241718 0.0185297 -0.08216813 -0.08855005 -0.014713894 -0.14458133 0.013787842 -0.014224899 0.11529434 -0.054060917 -0.019824812 -0.004670969 0.12840083 -0.016063666 -0.035164274 0.04148972 -0.09853199 0.02014163 -0.0112666385 0.11697902 0.0032186704 0.02698092 0.013172154 0.15510689 0.037461456 -0.08872751 -0.004776349 0.07232145 0.035354212 0.062578365 -0.1293326 -0.1625704 0.048745085 0.04484338 -0.019485662 0.11151448 -0.031100497 -0.10998891 0.0027344564 0.003338212 -0.010715814 -0.028020987 -0.028517144 0.078426555 -0.20016277 0.088107035 -0.055230882 -0.1631249 -0.04218835 0.07083622 -0.058713563 -0.04061273 0.008428844 -0.20800945 0.03675484 -0.077127576 0.017654942 -0.075059004 0.07060087 0.012134026 0.21724111 0.01207428 -0.06622807 0.030195277 -0.01967951 -0.044180263 -0.1904027 0.0131487055 0.13891396 -0.15060338 0.09634551 0.12155104 -0.013271791 -0.06149537 -0.09016201 0.024385598 0.06670687 0.03706975 -0.020191332 0.063570194 0.1103075 -0.09288062 -0.060136195 -0.08223606 0.17937225 -0.13269182 0.017510483 0.07929182 -0.024216907 0.08022461 0.060949665 0.04052527 0.05982848 -0.015856994 -0.041652285 0.018008001 0.0748913 0.023396576 0.109794006 0.08482052 -0.017467586 -0.05304006 -0.029177176 -0.09220986 -0.16809335 0.004046315 -0.040295053 0.081268534 0.039700072 -0.07542229 -0.026247293 -0.10029776 0.007935776 0.10841868 -0.059988756 -0.06662953 -0.0058071245 0.101714455 -0.055775475 0.087454155 0.13119091 0.060834695 0.02029416 -0.051339805 -0.064920135 0.18949617 0.048675902 0.091699034 -0.009931653 0.09872276 -0.09349124 -0.08266326 -0.00813998 -0.13050365 0.11599779 -0.061991032 0.01896227 -0.072090656 -0.016570758 0.0028937166 -0.055004966 -0.05175357 0.026089001 0.0100766765 -0.039357524 -0.09076242 0.064945854 -0.09509161 0.0069455644 -0.0011436762 -0.09204263 -0.0137021 0.01362462 -0.08381526 0.012478454 -0.0004424226 0.11518107 -0.03183296 -0.06701941 0.09487272 -0.01946471 0.15402474 0.09985061 -0.024971759 0.11106857 0.026368048 0.21027501 -0.0057704626 -0.02228356 0.05044529
922 0.017192362 -0.016535496 -0.06659719 -0.055627357 -0.05453535 0.096180774 0.14557865 0.12166334 -0.12905294 0.10221313 -0.043835063 -0.066577934 0.15279852 -0.123021714 -0.038909182 0.07042947 -0.029323112 0.11411438 -0.10378907 0.08847981 -0.041417655 0.10070895 -0.08879973 0.015484619 -0.12233989 0.08738913 0.0021490008 0.07013927 0.033620078 0.0594742 0.022053968 0.05148374 -0.014091903 -0.0312978 -0.0033485915 -0.03562098 -0.0707756 -0.07997745 0.02135733 0.05087065 -0.0969064 -0.11517233 -0.13301449 -0.21355349 0.23137763 -0.031706702 0.084888786 0.10256945 -0.038924593 0.04338019 0.013713802 0.020891545 0.06060599 -0.097399965 -0.02624901 0.017107066 0.0109400125 -0.0486675 -0.08621649 -0.14607309 0.19438522 0.064610854 0.001580053 -0.063723885 0.06246616 -0.011921827 0.13045621 0.021072023 -0.13490178 0.1384189 0.18304351 -0.008118789 -0.082243085 -0.1212656 -0.03066827 -0.038868167 0.09781455 -0.1260451 0.03459543 0.061596386 -0.17179208 -0.09888065 0.039505772 0.21080524 0.04002822 0.026346305 -0.09071027 -0.13712229 -0.050650638 0.050775718 -0.120434165 -0.06882891 0.19728173 -0.06105381 0.00998715 -0.071639806 -0.06640184 -0.14361526 0.008783922 -0.024022574 -0.050672058 -0.18621679 -0.19627905 0.03235822 0.019044235 -0.050725564 0.13094524 -0.013684659 -0.0045730737 -0.012724713 0.207015 -0.068070956 -0.04347072 -0.006951343 0.14519446 -0.026166003 0.026282055 0.09655241 -0.07485411 -0.054424662 -0.007294008 -0.092185445 -0.013417856 0.06698531 0.069884606 -0.0040099374 -0.016542591 0.1048658 -0.01863303 0.07797461 -0.05938916 0.051141903 -0.15504226 -0.046372138 0.05567225 -0.108602084 0.06764119 -0.04885821 0.18972638 -0.05257973 -0.002442174 -0.017061645 0.051094726 0.034754172 -0.11834503 0.13953353 -0.09145795 0.18530934 0.047190204 0.08816236 -0.023410285 0.043573454 0.032051954 0.1691101 -0.010556548 -0.11270774 0.04354345 0.11644617 -0.017482148 0.06494353 -0.20071521 -0.01759959 0.044911627 -0.0039201984 -0.00022154473 0.12573864 -0.05625003 -0.032924272 0.13362898 0.12498369 -0.01115556 -0.087537676 -0.062002726 0.03196719 -0.06460977 0.0819487 -0.065058164 -0.14373069 -0.017527666 0.11688811 -0.033926506 -0.06251035 0.057082124 -0.13296665 0.012103535 0.0046979813 -0.041674413 -0.082113646 -0.08512303 -0.053894352 0.1381253 -0.016276201 -0.10997308 0.08003064 -0.023565177 -0.10441543 -0.054556824 0.09250059 0.061369427 -0.05476301 0.010640949 0.09224511 0.03287138 -0.09680493 0.017375281 0.06257503 0.051436685 -0.011970926 -0.030454375 0.07982068 0.114151664 -0.044849664 -0.078808255 -0.054769073 0.10701195 -0.08851097 -0.06645115 0.040232945 -0.06566768 0.0147421425 0.09939022 0.049202036 0.04822348 0.030886121 0.047561646 -0.109126166 0.082401134 0.039522532 0.03592833 -0.028854713 -0.09833877 -0.09545724 -0.10146825 -0.030234702 -0.14331165 -0.06050705 -0.082872115 0.015864206 0.030757274 -0.13316846 -0.052742984 -0.080231816 0.12928225 0.086534195 -0.010207252 -0.051085725 -0.09518833 0.08492093 0.054996938 0.11731175 0.13858087 0.060875297 -0.06476972 0.006375878 0.07313402 0.097150244 0.015589499 0.044829316 0.023058025 0.1450966 -0.16875468 0.020673415 -0.06167958 -0.056340955 0.13463871 0.008716439 0.08879311 -0.038057547 0.055848435 -0.0625397 -0.009938214 -0.0029162362 0.017530492 0.013873275 0.03036518 -0.07195969 0.1047431 -0.06113365 -0.012896634 -0.04650327 -0.11302848 -0.029471755 0.049593385 -0.1093034 0.07592905 -0.06194247 0.06497753 -0.06668237 0.016138049 0.07250739 -0.028522141 0.08376992 0.11038808 0.06271012 0.11336941 0.033405278 0.17427815 0.09379072 -0.109887235 0.07144037
984 -0.035575826 -0.070768446 -0.038468443 -0.051845428 -0.022017596 0.053484276 0.016699519 0.09301156 -0.12363183 0.128797 -0.06725904 0.016023686 0.11122761 -0.06302584 -0.001446738 0.06628461 0.050139938 0.036861762 -0.12340766 0.033588286 0.049550552 0.099073105 -0.12303036 -0.015785355 -0.051278032 0.09683723 0.050014842 -0.034245357 -0.032016676 0.06902748 0.041258805 0.050355494 -0.023928244 -0.07209302 0.09522118 -0.07452904 -0.076413415 -0.11792575 0.046877176 0.03439107 -0.034003478 -0.15392649 0.0031994232 -0.12143183 0.16890934 0.028710643 0.107492305 0.08011029 0.1041755 0.031364877 -0.055137392 0.010710999 0.053959783 -0.06502323 -0.08174174 0.08815872 0.0878232 0.01348803 -0.06352879 -0.118077375 0.12614557 -0.09587813 0.02653324 -0.049184453 0.042591684 0.017759793 0.05664249 -0.058078658 -0.027806241 0.26954314 0.16810296 -0.04952816 -0.054964356 -0.076916516 -0.058962766 0.018001458 0.03638656 -0.18400587 0.1347926 0.08446941 -0.11665256 -0.030841606 0.05246324 0.1925837 0.044278886 0.019908022 -0.030562665 -0.08806315 -0.06540502 0.018637279 -0.12311896 -0.14140671 0.123501495 -0.11843786 0.006301304 -0.06864743 -0.035158984 -0.019729346 0.040913388 -0.12867035 -0.06927001 -0.079802625 -0.14527522 0.056666378 0.08034825 -0.11612935 0.12880784 -0.011257766 -0.0061417343 0.04596541 0.17596994 -0.05205976 -0.036312655 0.06738018 0.10781604 0.050233148 -0.13308014 0.022593647 -0.04864888 -0.08679623 -0.037834615 -0.07271073 0.08979365 -0.012832022 -0.01878201 0.0023352301 -0.04610418 -0.035090532 0.06515555 0.137376 -0.01950855 -0.017061304 -0.11567851 -0.031302292 -0.02084991 -0.06916911 -0.017652405 -0.10225712 0.055110224 -0.022405583 0.058875747 0.03494172 0.060756575 -0.0147749605 -0.111007616 0.04428835 -0.044445302 0.13446462 -0.005212073 -0.07654875 0.072053455 -0.0467843 0.04451497 0.14718515 0.043080762 -0.08546082 -0.013463444 0.07337073 0.052653056 0.047093593 -0.104557514 -0.19136004 -0.007183024 0.037853595 0.03786653 0.09694348 -0.044118643 -0.09417435 0.09526806 0.08252606 -0.007895366 -0.08057444 -0.07566236 0.022164337 -0.12015371 0.14448212 -0.01362582 -0.04880047 0.022448517 0.07527872 -0.11880151 -0.030597592 0.013827623 -0.17726687 0.05825188 -0.054130256 -0.020821521 0.02666055 0.02810502 -0.011517942 0.09844932 -0.08324907 -0.04385536 0.0643584 -0.06319843 -0.070582 -0.087082386 0.05796589 0.0064493073 -0.004235805 0.06001678 -0.018041333 0.08959295 -0.07826489 -0.0050483528 0.07606599 0.121380165 0.0038690267 -0.05674019 0.06679803 0.11719949 0.082028024 -0.06845951 -0.06215444 0.014556136 -0.059622854 -0.019437226 0.01124184 -0.13788228 0.02087798 0.123326644 0.084304206 0.007893989 -0.041258525 0.06887454 0.039462887 0.061726958 -0.011877196 0.14370646 0.06423721 -0.022608584 -0.090276204 -0.032855034 -0.052622434 -0.1396938 -0.026869237 0.027185332 0.06532282 0.08740015 -0.16002461 -0.17651626 -0.059623487 0.007717848 0.045541704 0.009164475 0.012345187 -0.10206321 -0.00417423 -0.10423765 0.038497876 0.068626866 -0.013579935 -0.028153708 -0.053492695 0.088134535 0.042925853 0.07689471 0.020868639 0.01073197 0.011051871 -0.11460864 0.030401459 -0.008607943 0.05613042 0.10166408 0.056419946 -0.004341109 -0.07311862 0.05055925 -0.012622713 -0.054896973 0.027467903 0.020545704 -0.053364765 0.039908387 -0.053986453 0.09005028 -0.074686095 0.034927882 -0.035364117 -0.0637818 0.016887816 0.09547442 -0.058676593 -0.09779045 -0.0091553265 0.054188613 -0.13911918 3.808417e-05 0.12789352 -0.0092074815 0.1320012 0.026293945 -0.04104084 -0.045843773 0.05441585 0.16550596 0.022207351 -0.06842331 0.15313083
1066 -0.14317773 -0.008475239 -0.059892304 -0.014131649 -0.017802196 0.05502139 0.045219585 0.02303851 -0.10650152 0.12270047 -0.043530177 -0.03226114 0.056453772 -0.09322485 -0.15410687 0.108439915 -0.03942827 0.02921245 -0.13198109 0.014921978 0.05110041 0.11671577 -0.09814906 0.040141992 -0.078120895 0.068560205 -0.09607883 -0.044298466 -0.026839513 0.08532729 0.05009701 0.020669106 -0.036164533 -0.016549926 0.054563362 -0.11205669 -0.15371428 -0.21864098 -0.05247256 0.051405005 -0.017306942 -0.06037444 0.0016344015 -0.11541983 0.2424568 0.01538006 0.041264668 -0.03032949 0.005505346 -0.072252795 0.016608613 -0.024616724 0.091142945 -0.14207809 0.075775236 0.1505409 0.10447279 -0.060636837 -0.08310693 -0.1544668 0.19940476 0.006949661 0.053562135 -0.11681928 0.021550877 -0.07933403 0.06594429 0.033891868 0.052914634 0.15018861 0.0966306 -0.021843739 -0.041771933 -0.03479545 -0.0304518 -0.019735247 0.027337106 -0.16050327 0.13206041 0.104643546 -0.19545385 -0.09806734 0.0073231393 0.16327316 0.02558838 -0.0007210301 -0.07025671 -0.11610807 -0.026840348 0.026705941 -0.06317364 -0.078895696 0.19454283 0.017612033 -0.025955087 -0.022626946 -0.11279978 -0.0982583 -0.007855622 -0.061035812 -0.031020416 -0.049552374 -0.15492101 0.014143153 0.017996676 -0.16044037 0.10299458 0.04290198 0.009405188 0.055797834 0.15289316 -0.23145734 -0.1322356 -0.024702298 0.06672112 -0.03190715 -0.109509714 0.018974785 -0.047886483 -0.07786666 -0.09932271 -0.16379517 0.058641315 0.0901409 0.026305053 0.074343555 -0.05147871 -0.021272264 0.01475184 0.12056822 -0.07159264 -0.03940296 -0.043015573 -0.052529845 0.046552263 -0.11334899 0.061855048 -0.010698758 0.10858087 -0.06975663 0.03708597 -0.07951889 0.06803165 0.04828996 -0.08435956 0.061765283 -0.051532127 0.06112749 -0.012062894 0.0116609 -0.08665716 -0.09794687 -0.18870007 0.14519158 0.012765729 -0.060193192 0.044920284 0.04857334 0.12317651 0.08974041 -0.14623281 -0.1269303 0.076743886 0.14204721 0.06769742 0.12529726 0.0029359795 -0.14593133 0.14533849 0.123187676 -0.10655716 -0.03869666 -0.015104072 0.10814265 -0.04615899 0.039082818 0.027627412 -0.1390558 -0.07465588 0.06795062 -0.071759984 -0.09273116 -0.008376767 -0.12317384 0.045359466 -0.09140249 -0.033308115 -0.12578309 -0.08546864 -0.016376019 0.05744512 -0.059963807 -0.09609182 -0.018450353 -0.07392268 -0.12670292 -0.15602848 0.12227732 0.108289585 -0.14475355 0.0020715464 0.03213421 0.07055238 -0.074186645 -0.06753856 0.11658704 0.072356485 0.07812079 0.03562491 0.05601597 0.08169615 0.029731497 -0.08703763 -0.022205444 0.024742706 -0.20814918 -0.06226218 0.028800447 -0.11624438 -0.021955078 0.051026303 -0.018747628 0.08936679 -0.026516346 -0.035635225 -0.048249736 0.034552116 0.08841656 0.07461347 0.0043833214 0.037618577 -0.109180935 0.07194649 -0.11653927 -0.12008209 -0.10491116 -0.047714707 0.101009466 0.15367489 -0.06640213 -0.006086789 -0.050758954 0.074801356 0.11250726 -0.044555373 -0.07898229 -0.0034707617 0.09952731 -0.037909362 0.13943802 0.041648246 0.048948154 -0.119247705 -0.062834606 0.043151278 0.10292737 -0.063896745 0.03357155 -0.0027841653 0.08055505 -0.18029283 0.044075448 -0.10806382 -0.11796133 0.116571486 -0.10790015 0.093475305 -0.100840054 -0.014785037 -0.056775477 -0.056202836 -0.025787776 0.19502835 0.013984177 0.026308456 0.0140265385 0.07541706 -0.057283185 0.03793418 0.07915907 -0.078072704 -0.09875305 0.031840745 -0.07540502 -0.0022432776 -0.028466418 0.09173638 -0.11468893 -0.011757266 0.01363074 0.015131675 0.04030411 0.16604516 0.059137445 0.13809082 0.17436086 0.1383136 0.016157355 -0.017842667 0.01612213
21 0.073940046 -0.037490636 0.12791598 0.13744132 -0.081205584 -0.12888604 0.14925806 -0.1111415 0.005786969 0.13408473 0.037879113 0.0254514 0.1521129 -0.09180143 -0.05173255 -0.12213817 0.023352165 0.027042234 -0.13280743 0.11828345 -0.09186504 0.014073776 -0.033988032 0.057583768 0.16652568 0.047199156 0.048621632 -0.073048875 0.18769273 0.18529598 -0.033462077 0.05641103 0.0075171706 -0.051171556 0.15726617 -0.084694125 -0.002520892 -0.026547765 -0.1643549 0.05937164 -0.0017866908 -0.041221067 -0.09918874 -0.07394004 0.1943671 0.069684796 0.12588799 -0.070375785 -0.01957362 -0.09480655 0.044194486 -0.056113202 0.104263104 0.11363646 0.07543864 0.14251024 0.021704456 -0.0015293239 0.06971856 -0.18844256 0.13475189 0.08033178 0.16367026 -0.23166288 -0.02799764 -0.042381745 -0.1561855 -0.04111887 0.026128246 0.05248524 -0.00012326 -0.04859083 -0.021449499 -0.028466837 -0.0076732403 -0.062480733 -0.05774899 -0.110856116 0.09450727 -0.03708675 0.095525086 0.07049574 0.24494645 0.11034782 -0.10964253 -0.0017018514 0.014977626 -0.1608525 0.058251712 0.020291219 -0.121535316 0.030537378 0.13501102 -0.08061533 0.11256027 -0.1771892 -0.09034909 -0.09783634 -0.08293814 -0.11313278 0.076299846 -0.14340878 -0.055842526 0.057260245 0.004588334 0.14685625 0.083324544 -0.107421726 0.12769966 0.10512124 -0.14731906 -0.058606256 -0.071316816 0.025025943 0.022486858 0.14159057 -0.07972247 0.12280312 0.104566224 0.038425338 -0.035947055 0.08044179 -0.14364657 0.13433003 -0.083357655 0.006307555 0.12941094 0.25667313 -0.018355148 0.098680906 0.05138165 -0.122245565 0.05531915 -0.08791584 0.14942981 -0.076910734 0.05543463 0.06821727 0.08556368 0.0020720125 0.12584937 -0.011399235 0.030980583 -0.030642336 0.049219977 0.08882164 0.13073567 0.12268264 -0.10663579 0.08262022 0.084375195 0.033708584 -0.019533996 0.113019004 0.025688179 0.113923974 0.21496497 0.011967602 0.15248625 0.123319745 -0.14100252 -0.053057462 -0.103714086 -0.0004795644 -0.010148844 0.030900603 -0.13031073 -0.2169641 0.12926546 0.030585408 0.2143634 -0.23043506 -0.13316418 -0.029908968 0.15075876 -0.093834676 -0.00979589 0.23774755 -0.08957976 0.07560691 -0.058242872 -0.12819652 -0.20226681 0.009219276 -0.0013072053 -0.04602017 -0.020647205 0.12532905 0.080761544 -0.1280441 -0.06621205 0.1323893 0.04970763 0.022019466 -0.023970801 -0.123143874 -0.028447088 -0.084751286 0.068587095 -0.10240282 -0.036921315 0.02884758 -0.057026837 -0.035497174 0.111765824 -0.016617956 0.036263302 0.15217623 0.16751799 0.18392923 0.086771995 -0.14237249 -0.05322824 -0.01934215 -0.12985317 -0.13789232 -0.06326089 -0.031115342 0.006343224 0.0052150027 -0.034105275 -0.050662458 0.11542561 0.19891939 0.053499877 -0.14488067 0.03541712 -0.0756893 0.040425576 0.06250033 0.14774503 0.05530893 -0.121396765 0.053122066 -0.01832045 0.046556175 -0.07630588 -0.10274837 0.14618468 -0.011719365 -0.17394225 -0.06701284 0.24779737 -0.15883158 -0.071453676 0.016753176 0.0894061 -0.2383114 -0.008200458 0.032860957 -3.5311066e-05 0.04856834 -0.054002296 -0.18953781 0.08229203 -0.07424806 0.02915255 0.10446753 -0.10377489 0.16881076 -0.25323546 0.003873513 -0.22855338 -0.107671745 0.076560356 -0.16866304 -0.001516549 0.011963178 -0.12257664 -0.08444405 -0.054844983 0.10075021 0.035315845 0.08608627 0.04841375 0.17374712 0.064964965 -0.06815443 0.01963028 0.076823965 -0.11768403 0.114360444 -0.13273528 -0.022618689 0.09893889 -0.04668486 0.037697263 0.050129972 -0.18571332 0.117584765 -0.005224231 0.060475986 0.0485626 -0.032335583 0.049642306 0.0650121 0.2113814 -0.13910232 -0.071318105 0.12295191
853 0.010278374 -0.084640615 -0.08599772 -0.086443424 -0.061611086 0.03361651 -0.026356127 0.09941154 -0.0066579506 0.09420178 -0.08713715 -0.16974139 0.08066587 -0.12581031 -0.033261266 0.0611022 0.0114618745 0.073791414 -0.08526575 0.048848126 -0.061473154 0.15902452 -0.13015625 0.04956017 -0.16258344 0.08043429 -0.040787548 -0.11686603 -0.016995728 0.036966797 0.0034563364 -0.0883887 -0.14771692 -0.05672659 0.0643944 0.038315453 -0.14145981 -0.17267632 0.09700147 0.11852194 -0.05692312 -0.010552542 0.076314464 -0.2064024 0.13377531 0.04740924 0.14796586 0.1013399 -0.092070945 -0.01723126 -0.034517977 -0.12782258 0.061620507 -0.055336304 0.04958186 0.053512033 0.12567976 0.09615838 -0.06571525 -0.036197614 0.1339788 0.115568765 0.039748754 0.04965534 -0.12126539 -0.08433155 -0.0011971913 -0.049860742 -0.14950857 0.09434332 -0.008434897 0.19766635 -0.109379925 -0.005471732 -0.056808807 -0.22343178 0.045954548 -0.1281923 0.08009141 0.032850184 -0.17785946 0.013183205 -0.08417647 0.15407494 0.07584726 -0.120809756 0.03859899 -0.0030793217 -0.06903045 0.086787194 -0.046061367 -0.07955173 0.1769468 -0.11623894 -0.01823639 0.024762731 0.04762194 -0.043216385 0.05736186 -0.02806496 -0.056370262 -0.03067364 -0.14802234 -0.035003915 -0.0023559793 -0.04034998 0.08301688 -0.06829084 -0.056067083 0.0063941386 0.00961994 -0.070934266 -0.044380773 0.12449373 0.087611504 0.011707657 0.07198514 0.19267936 -0.0010409823 0.06539279 -0.07024163 0.0075172833 -0.0586988 0.09823196 0.09647701 -0.037315313 0.028137429 0.06076448 0.050452366 -0.00059774175 -0.07290773 0.06197153 -0.09180272 -0.101668715 -0.049061604 -0.13954599 -0.11898156 -0.12950014 0.16076529 -0.13819088 -0.024571154 -0.055723213 0.053150196 -0.11739575 -0.13918985 -0.0056123 -0.02909182 -0.051402595 0.04668612 0.06767059 0.06397389 -0.07390731 -0.13540263 0.08631832 -0.1087056 0.00032435736 0.029951628 0.021073857 0.06501993 0.019102754 -0.027533025 -0.11083293 0.07763563 0.012363793 -0.018240012 0.097840756 -0.110084824 -0.12317993 -0.021618009 0.025328176 -0.096025586 -0.089825615 -0.15051605 0.18237317 -0.10312219 0.08521812 0.059672404 -0.12130669 -0.08839753 0.10240515 -0.028368924 -0.121370025 0.16281575 -0.20607993 0.033059057 -0.1082765 -0.105081394 0.0034916645 0.06328321 0.12725249 0.15776989 -0.10586523 -0.11057505 0.1115953 0.044586994 0.08935242 -0.0941127 0.14658809 0.15810594 -0.1959437 -0.1109309 0.100308456 0.0640408 -0.09610214 -0.17326759 0.14042468 -0.037809994 -0.0689451 -0.09208551 0.027508382 0.11169085 -0.11014661 -0.082244046 0.17597565 0.036533114 -0.07827774 -0.09377449 -0.10419122 0.01756582 -0.10761735 0.10458616 -0.11592742 0.055568304 -0.070279576 -0.08176631 -0.12797719 -0.07961374 0.067765065 0.082730785 -0.0066205882 0.01665325 0.01728081 -0.08239991 0.003217406 -0.065154485 0.004746946 -0.004050871 0.13907775 0.08047215 -0.055220764 -0.16269647 -0.021719743 -0.09078488 0.034264512 -0.12979165 0.02802609 -0.18217951 0.106375284 -0.08040619 0.0049893507 0.049998496 -0.027713167 -0.12415904 -0.09484611 0.12910601 0.060090758 0.10620956 0.04700503 0.03893315 0.047590483 -0.18020394 0.03994115 -0.031294946 -0.08122152 0.08374201 -0.12644331 -0.0119061945 -0.044136036 0.06915323 0.06869255 -0.062016625 0.16694282 0.07851699 -0.08687003 -0.010237677 0.020146519 0.11094479 0.02142104 0.013007774 -0.01867283 -0.21829912 0.014631739 0.12781571 -0.080324985 -0.038513016 0.034312017 0.13409635 -0.21604271 -0.066873364 0.05379339 -0.040507182 0.045917552 0.1275544 0.0082893185 0.052244432 0.08252607 0.26838648 0.021433521 -0.06569238 0.09211728
502 -0.13122092 -0.058611643 0.021014443 -0.06884255 0.024615005 0.11504138 0.020974053 0.029131273 -0.118274435 0.1283572 -0.11441313 0.089690216 0.04049965 -0.10873206 -0.19177882 0.13429971 -0.02384492 0.07071462 -0.13630323 0.07615719 0.026813317 0.049615826 -0.18293628 0.05925651 0.0321398 0.073939286 0.009882873 0.039459113 -0.0059324205 0.13527894 0.024068896 0.04830379 -0.024433017 -0.07410864 0.02381454 -0.06407376 -0.07590732 -0.14390898 0.06014514 0.056774735 -0.021204067 -0.21456788 -0.006682619 -0.13852857 0.18226539 -0.059677605 0.08440511 0.08556346 0.02971743 0.030472351 0.07829278 0.0293333 0.012370936 -0.10337697 0.030976154 -0.027389543 0.11114813 -0.028092017 -0.11994876 -0.06411728 0.18768707 -0.058912765 0.0743757 -0.0015287529 0.005241877 -0.0051104324 0.06831016 -0.04006426 -0.10797415 0.20698602 0.08650998 0.0051143016 0.07723997 -0.07718221 -0.07675912 -0.013335027 0.071978934 -0.17885332 0.078118466 0.019129297 -0.18828273 -0.005625943 0.014714557 0.13496062 0.041506153 0.026680727 -0.0237432 -0.12986013 -0.04115688 -0.0580121 -0.10202815 -0.04553641 0.09501455 -0.03870055 -0.030302478 -0.0638715 -0.081562236 -0.0729922 -0.008897067 -0.005076589 -0.055597443 -0.07986933 -0.14431454 0.05404324 -0.053062156 -0.066563584 0.11289093 -0.023168325 -0.0070368787 0.05721122 0.13785312 -0.076200545 -0.04506569 0.0045419876 0.13775143 -0.015189577 -0.07925932 0.022278188 -0.047753807 -0.041274652 -0.054372154 -0.15862808 0.03385173 -0.027445067 0.08476817 0.08376364 -0.04582407 0.08634062 -0.019395288 0.00921193 -0.10547594 0.08404658 -0.07397987 -0.056364167 0.014157654 -0.16966698 0.089741066 0.048431326 0.14583735 -0.073752336 -0.06855996 0.013717382 0.070365705 0.008203699 -0.09554322 0.03904631 -0.10117641 0.03727366 0.040100202 0.047793053 -0.060026072 -0.061918125 0.105558395 0.24893838 0.10842225 -0.008167764 0.09478475 0.14445621 0.025914105 -0.048044942 -0.07280611 -0.18262692 0.16359463 0.18439333 -0.0059264097 0.09047716 -0.013816123 -0.09390308 0.09844416 0.04191519 0.025827346 -0.08136407 -0.106815524 0.11272 -0.13087 0.092369355 0.010519732 -0.103663735 -0.13404755 0.06814775 -0.035918716 -0.045303132 0.05912372 -0.14008003 0.06418283 -0.16509956 -0.06947285 -0.09991003 0.014169012 0.036800615 0.10974517 0.014337454 -0.14576754 0.06870129 0.03375466 -0.049649343 -0.077879585 0.1471211 0.02159021 -0.09675867 0.018730078 0.062392794 0.0083108 -0.057489734 -0.05831209 0.1321255 -0.030636827 0.0026637623 -0.053470064 0.005983925 0.1271903 -0.057525273 -0.079866946 -0.008296346 0.15974927 -0.124783516 -0.12724552 0.02752292 -0.05805653 -0.020900346 0.049159113 -0.038069252 0.0448043 -0.029518284 -0.14816733 -0.023645313 -0.026816387 0.0071429447 0.077619135 0.048246816 -0.05310203 -0.0819028 0.083100595 -0.08847607 -0.10654432 -0.022493128 -0.092406616 0.047824476 0.054321025 -0.05730057 -0.08120878 -0.058990825 0.011607945 0.07337754 -0.035567656 -0.042952683 -0.066153854 0.12743324 -0.060795233 0.12650147 0.06792241 0.090618245 -0.092482746 -0.00830166 0.103606395 0.09210377 -0.0021394042 0.021446638 -0.018241324 0.070755474 -0.116355464 -0.04326306 -0.07049368 -0.038157124 0.05720909 -0.039061982 0.07843025 -0.07939226 -0.015821459 0.013052362 -0.09703493 0.036244355 0.012375646 -0.05567317 0.041839335 -0.088639766 0.07846123 -0.13307063 0.038191352 0.119123906 -0.015107052 -0.15060842 -0.016038321 -0.15542956 0.040658187 0.016741095 0.066976674 -0.0919963 -0.071861625 0.09973347 0.04962181 0.09926158 0.03710094 -0.024593245 0.03332651 0.083792776 0.18723327 0.056027785 -0.048569057 0.20648308
357 0.11904968 0.019163778 0.1069021 -0.033221334 -0.044049494 -0.051553164 0.02691297 0.034667812 -0.05343075 0.23846221 -0.032526847 -0.017768629 -0.0011490714 0.08511988 0.14920132 -0.04142817 0.069470584 0.047750108 -0.03089005 0.16156153 -0.029429203 -0.0301514 0.029702784 -0.08724031 0.066135645 0.1380637 -0.07755286 0.12829916 -0.02698948 0.08606245 -0.083648056 0.0717113 -0.13660397 -0.012885013 -0.0123268375 -0.05467228 0.00525813 0.0009893968 -0.1631336 -0.003224361 0.09305263 -0.055839106 -0.049042635 0.14823669 0.062898755 0.15144603 0.15361181 -0.12201013 0.029604606 0.036724705 0.079211205 -0.033655763 0.1119451 0.096588895 -0.03161953 -0.018182022 0.19092974 -0.016560169 0.06845911 -0.03839045 -0.018059267 0.12268451 0.1180283 -0.19503619 0.19774438 -0.1292437 -0.18841545 -0.02534939 0.069950916 -0.11453444 -0.021446994 -0.14727104 0.09283098 0.007930617 0.19413678 -0.005549123 -0.12160468 0.019976651 0.064757265 0.041200772 0.037704974 -0.012862763 0.13446027 0.14791197 -0.11712407 0.049415328 -0.019608045 0.049197443 0.044424716 -0.025281826 0.05885762 -0.12917349 0.15760072 -0.13005413 0.095127076 -0.013482281 -0.07534047 -0.1287679 -0.016781846 0.12557966 -0.057369433 0.058572788 0.05000146 0.06335958 0.024781398 0.06909624 -0.021859778 -0.21146479 -0.007669137 -0.09128481 -0.064341895 -0.16863029 -0.045435775 0.07992587 -0.073180005 -0.012772853 -0.041887607 0.1917531 0.043159083 0.06154676 -0.016311804 0.16387457 -0.008494107 0.06747462 -0.06093784 0.02430442 -0.06901406 0.24407822 -0.14445095 0.07216674 -0.011434723 0.0328711 0.017989915 -0.07832288 -0.042061567 0.03954339 0.13693382 0.05682305 -0.0011642278 -0.10387171 0.12909982 0.07596323 -0.1130195 -0.08794138 0.07322275 0.15926065 0.0050227987 0.025262598 0.04761921 -0.07907302 0.0029192704 -0.07315013 -0.018483019 0.1391451 -0.056762666 -0.0044097975 0.1324084 -0.095799655 0.122176886 0.08581522 -0.08330601 -0.026688801 -0.06789011 -0.001109567 0.018165149 -0.0032351802 0.011492143 -0.22731353 0.14095138 0.10095846 0.11014036 -0.15974602 -0.16477787 -0.030084105 0.12354925 -0.03546766 -0.11321342 0.17047614 0.05555953 0.10026983 0.008717233 -0.09786546 -0.180085 0.011090059 -0.017038956 -0.055457402 0.014894767 0.31510532 -0.07327593 0.042271793 -0.09534151 0.0019265856 -0.025119446 0.05331165 -0.07040036 -0.006301749 -0.07738234 -0.022643689 0.013850784 0.09702923 -0.05715408 -0.0064366637 -0.047626518 0.15185681 -0.13220546 -0.15177558 -0.1416541 0.16452482 0.119903535 0.08990651 -0.040381737 -0.07208938 -0.034713004 -0.034801338 0.07024019 -0.066671856 -0.09928662 -0.027571773 0.063618556 0.11354214 -0.025680818 -0.044388205 -0.005125084 0.116978474 0.0886597 -0.07652149 -0.10453406 0.10259336 -0.02904443 0.088105544 0.07244319 0.103181906 -0.04843251 0.10326969 -0.057604127 0.12506439 0.05293563 -0.04874717 0.1735916 0.13664693 -0.0795364 -0.13400392 0.20632109 -0.084896855 0.03743194 0.037699744 0.20140623 -0.10684948 -0.015598891 0.0052230493 -0.008768554 0.00982442 -0.060396533 -0.13171022 0.21451828 -0.28277352 0.020842727 0.004532786 -0.10513787 0.107554324 -0.12857643 0.057495862 -0.060480166 -0.13393624 -0.11915569 -0.012766693 0.07240428 0.0736863 -0.041050017 -0.13275406 -0.019714708 0.1491644 0.12227394 0.03650415 -0.097219475 0.18414375 0.036393814 -0.030657228 -0.039312802 0.12015389 0.028952034 -0.09554235 -0.14151512 -0.13108018 -0.012173824 -0.05272379 0.10803541 -0.034340598 -0.067303054 0.07068356 -0.16431329 -0.022246161 0.12864394 -0.05906528 0.101489775 0.10666018 0.18366112 -0.0043914383 0.0022425256 0.20304374
1063 0.05707905 -0.12097401 0.21241693 -0.08584028 0.013794262 0.09581796 -0.115309075 0.17925256 -0.08760302 -0.03278582 -0.081715375 -0.18019958 0.13010542 0.02925351 0.2340847 -0.007587267 0.14569268 0.06829879 0.00809933 -0.029282475 0.020303382 -0.084290266 -0.08420981 -0.023970887 -0.107691795 0.18652616 0.059590906 0.07981676 0.01360917 -0.10455875 -0.20969427 0.019989729 -0.08074035 -0.0507495 0.04706268 -0.055321354 -0.007924475 0.014474046 -0.10136606 0.04082404 0.07032559 0.035107248 0.060177077 0.02179999 -0.12508023 -0.0056378264 0.043583564 0.0024177886 -0.00014685075 0.042498674 0.052888203 -0.13170686 0.10251596 0.08224823 0.019930508 -0.10727852 0.12806186 0.06336959 -0.0069220443 0.037598103 -0.045848865 0.13571113 0.11190794 0.02259875 0.01531029 -0.08279648 -0.01447665 -0.061018907 0.052549906 0.0901085 0.015723865 0.053349074 -0.14451239 0.094483465 0.030693188 0.041647114 -0.06064549 -0.066837065 -0.0897228 0.052331656 0.08312782 -0.026350481 -0.10506295 0.08634173 -0.0063398066 0.14417021 -0.021224465 0.034654852 -0.19623864 0.05866416 0.08107883 -0.046537116 0.046712533 -0.08097817 0.10091642 0.14459656 0.059305888 0.07339396 0.008484819 0.037000734 -0.104418255 0.00061676424 0.018863063 -7.764304e-05 0.019372638 -0.0052279434 0.09518642 -0.112480976 0.074534126 0.057400845 0.119446605 -0.0760412 -0.101303585 -0.01258867 -0.039534293 -0.22221431 0.06622193 -0.0037823212 0.06797391 0.0010723188 0.07981557 0.17219363 0.023409644 0.08269461 -0.013370515 -0.03391748 -0.072397046 -0.030493584 -0.09249978 -0.06578674 -0.025089296 -0.045011863 0.046198316 -0.0048269415 -0.15078495 0.08905009 -0.064710125 -0.03132185 -0.065671824 -0.084586166 0.038523007 -0.10456802 0.010295092 -0.13649325 -0.017152343 -0.119920485 -0.06397753 0.17359915 0.083171666 0.05964225 0.043823 -0.08246668 0.033818748 -0.03398697 -0.122570924 0.010896628 -0.03487768 -0.19424444 0.065097585 0.058132257 0.14777358 -0.0113688465 -0.01824166 -0.11249228 -0.07879315 -0.17717957 0.12159433 -0.008670922 -0.08361727 -0.15690348 -0.033171438 -0.19159284 -0.051765475 -0.0582038 0.011018783 -0.23175196 -0.028464288 0.0872494 0.085040696 0.06069882 0.08072239 -0.08290902 0.031645354 0.11560711 -0.025395613 -0.17163463 0.06841243 0.13618982 -0.061703622 -0.03440968 -0.074290104 -0.09861797 -0.025271675 -0.025630621 -0.056440998 -0.14534347 -0.06651459 -0.044856112 -0.033600632 0.07728301 -0.12059806 -0.030566243 -0.004239425 0.05166293 -0.07965379 -0.11698041 -0.026591823 -0.047789074 0.056857042 -0.02335517 -0.15584931 0.034406092 0.029985186 0.09802749 0.11596201 0.08238619 0.054520257 0.17656632 0.027435873 0.036655482 0.04925414 -0.04243029 -0.107541315 0.031996552 0.1427071 -0.13073899 -0.1645636 0.15172164 0.00727135 -0.14172083 -0.026159635 -0.05495181 0.058010038 -0.08236088 -0.12178071 0.10521066 0.09203336 -0.031186597 0.12277416 0.29864067 0.031290144 -0.061751157 0.082021296 -0.1109172 0.08650186 0.18067853 0.054509424 0.034714207 -0.05445472 0.020409796 -0.06275459 -0.1333364 0.04819423 0.0031703445 0.17591861 -0.091549024 -0.15496887 -0.02749203 -0.018897278 -0.14353396 -0.031239087 0.07257243 -0.066035084 -0.051706616 -0.011502577 0.016695831 -0.021292988 0.1255956 0.026497561 0.06395604 -0.22043088 -0.05827238 -0.029110044 -0.037374746 -0.13890642 0.09091899 0.11083384 -0.03392265 -0.06705367 0.013213415 0.1809114 -0.19012314 -0.0900519 -0.10203881 0.1402769 -0.10402297 -0.042176105 -0.07522777 0.05679779 0.03362315 0.0058812955 -0.05403273 0.012383079 -0.06575396 0.059938435 0.123237796 0.063777976 -0.01304176 0.10846398 -0.04128534
1040 0.044610623 -0.10981164 0.14739627 -0.022704756 -0.06537861 0.04643379 -0.0114424 -0.04303516 0.055238847 0.008453079 0.036404885 -0.2364679 0.07660566 -0.078072704 0.07874112 -0.04140478 0.034844782 0.04014389 -0.088606685 0.0018708495 -0.10858811 0.08154622 0.066635266 0.06424643 0.09291087 0.06066421 -0.02011341 0.008837399 -0.007582672 0.041495793 -0.13212413 0.047231834 0.004107289 -0.058800593 -0.061979383 -0.07887302 -0.023575401 0.012505263 -0.068381 0.048128728 0.14538057 -0.057295103 0.006584534 -0.124368675 0.06642323 0.032138582 0.11934312 -0.081501745 -0.094405726 -0.05667543 0.1437591 0.044418983 0.10432383 0.13096422 0.1279868 0.060547274 0.014980928 0.05121519 0.03834912 -0.056470416 0.10527389 0.062054273 0.18017939 -0.20198691 -0.07256813 0.033016197 -0.15143682 -0.020313686 -0.015879158 0.10519036 0.00080465095 -0.0081458185 0.0018025709 -0.16692379 -0.024065565 -0.07708009 -0.011151481 -0.044478133 -0.035860185 0.01711539 -0.0028931603 0.015988907 0.046727072 -0.05047399 -0.08171316 -0.026478002 -0.0906371 0.008566241 -0.080632254 0.1623088 -0.064881474 -0.03570034 0.038410734 -0.00212678 0.082089275 -0.032267142 -0.043693356 -0.021593219 0.06893381 0.122828476 0.07940899 0.1467082 0.019968636 0.23147705 -0.04255205 0.09505275 0.024357753 -0.090857334 -0.003101781 0.13856646 0.01253083 -0.15117128 0.015279998 -0.0019446872 0.06919629 -0.024952378 -0.0052786116 0.103677705 0.045760464 0.08034514 -0.1411284 -0.049383264 -0.01762179 0.038510162 -0.08388199 0.03661308 0.069214486 0.10973558 -0.11973778 -0.10423146 0.008441688 0.03966872 -0.12421116 0.00490476 -0.028082607 -0.037067275 -0.0075237164 0.17537074 0.006648021 0.065078124 0.070941895 0.07631068 0.00629645 -0.020134242 0.006163143 -0.05290549 -0.043434974 0.053778607 0.049107347 -0.05364929 0.033504937 0.041686077 -0.12152329 0.1407296 0.012578206 -0.01878099 -0.03693178 0.060056232 0.08009755 0.16577594 -0.02206524 -0.101603985 -0.0042641335 -0.091933556 -0.09769383 -0.0317571 0.07728781 -0.16179697 0.05075582 -0.055779822 0.056407854 -0.13325666 -0.2246152 -0.13850813 0.15732464 -0.05813888 -0.09508991 0.097065575 0.031583287 0.067952104 -0.004964594 -0.018922616 -0.29536998 -0.025509011 0.054736394 -0.14326666 0.1671218 0.06488532 -0.12347873 -0.17141044 -0.039289325 0.009176789 0.0007066473 0.12449804 -0.046394803 -0.16918385 -0.031003216 -0.022267072 -0.0031109245 0.0019506792 -0.03667469 -0.04692631 -0.022831267 0.14442544 -0.03182185 -0.09457829 0.02205422 0.039285194 0.06601805 0.11812294 -0.072434805 -0.06900222 0.06821772 -0.027047286 0.059211474 0.02362551 -0.2622892 -0.02525173 0.047554087 0.08079875 -0.08041984 -0.03437069 -0.11349842 0.06911888 -0.037993535 -0.06646037 -0.09958374 0.06401199 0.14411807 0.041780025 0.020758541 -0.03702796 -0.09838638 0.16188322 0.01847202 0.11366638 0.006348321 -0.10263195 0.12075342 -0.022972697 -0.045282226 -0.036371227 0.07127693 -0.13594297 0.023075538 0.12838274 0.10945658 0.060152303 0.12415106 0.04236755 -0.118559875 -0.024981672 -0.09176868 -0.21309932 0.17031434 -0.15407002 -0.059920695 0.09656573 -0.040752504 -0.019664519 -0.019061007 0.08895662 -0.043411676 0.033143368 0.004843928 0.056026522 -0.009071645 0.023170738 0.028745165 -0.13091564 0.013421733 0.0896428 0.08571654 -0.03971594 -0.13350584 0.07077049 0.0070488476 0.14684105 -0.10350199 -0.006937966 0.03685925 -0.02589987 0.0014153549 -0.11563501 0.064390585 0.0335121 -0.05166849 -0.03729631 -0.16493107 0.039546102 0.01219392 -0.07156038 0.014434809 -0.011795418 0.03391859 0.053719822 0.13066947 0.05686514 0.077107966 0.009226267
1060 0.21423721 -0.16542162 0.24604851 -0.043907437 -0.11915599 0.15704347 -0.123153 0.042652994 0.15751113 -0.009500624 0.105603926 -0.19963983 -0.043648325 -0.08230203 0.21877576 -0.054451406 -0.018919002 0.04569638 -0.05388609 0.10648946 -0.119201146 -0.023599287 0.12753598 -0.069601744 0.0140737565 0.0057815276 -0.00033831698 0.0021511964 -0.052677255 0.022440374 -0.18108822 -0.031751547 -0.011332544 0.049521018 -0.0808116 -0.050660357 -0.079397365 -0.03067073 0.047020853 0.035790365 0.2222743 -0.061034974 0.06119484 -0.05522466 -0.007953717 0.06303069 0.08132008 -0.12987545 -0.037731316 -0.01894226 0.113237485 -0.006675775 0.1257187 0.17868233 0.0329873 0.10061032 0.06467293 0.12920843 -0.058484048 -0.022387512 0.028848322 -0.009540085 0.21234304 -0.10903762 -0.022839233 0.1301936 -0.14779352 0.032090176 0.078312 0.10520091 0.06251497 -0.06668657 -0.024923969 -0.16954683 0.028469456 0.07233406 -0.027720906 -0.0052683447 0.0631137 0.11443223 -0.029861892 0.02935796 -0.068205975 -0.091111846 -0.028095506 0.030422665 -0.1725978 -0.053341694 -0.12478642 0.16198216 0.01047523 -0.07858916 0.15210514 -0.06700283 0.072486326 0.012870469 0.07955265 0.069027536 0.05357738 0.15566847 -0.006915701 0.11908674 0.08724218 0.22894637 -0.0700957 0.058267176 -0.016253304 -0.042725954 -0.048229676 0.036426738 -0.0086394325 -0.25095552 0.05617232 0.06292086 0.026245758 -0.13087966 0.041469242 0.033831075 0.0049472824 0.15470988 -0.07660724 0.018383618 -0.044960942 -0.020133607 -0.034402743 -0.0988728 0.086512335 0.1254787 -0.19807571 -0.1156835 0.06898096 0.02148178 -0.11199046 -0.004566399 -0.035261046 0.00048789982 -0.032141358 0.1396361 -0.07458416 0.083122216 0.01963873 0.11912708 -0.0050591133 -0.107901275 -0.013491066 -0.1350706 -0.04029455 0.037005357 0.08460813 -0.06524237 -0.04501087 0.0020451017 -0.2179288 0.11058186 0.0044624046 -0.015859196 -0.14011244 -0.038268313 -0.0011701456 0.12952042 -0.08891571 0.012618146 -0.04638453 0.0042126183 -0.07754363 -0.051418547 0.13103205 -0.03231334 -0.07103826 0.018623564 0.05392881 -0.108353965 -0.18736081 -0.14856178 0.122126766 0.05340095 0.0033192388 0.052671533 0.060713496 0.026139064 0.088315375 -0.027609099 -0.19175874 -0.033547364 0.008334078 -0.016039632 0.13707343 -0.039609954 -0.17389682 -0.16602944 -0.037034143 -0.056704152 -0.15154372 0.18314092 -0.04297354 -0.06938884 0.0027634758 0.035538714 -0.0016577415 -0.014786708 -0.063733526 -0.16749345 -0.03470402 0.22994478 -0.06577406 -0.15928254 -0.052404925 0.041782092 0.038629122 0.123889714 -0.049431723 0.012493615 0.14586265 -0.0463975 0.07634629 0.069971256 -0.13102603 -0.025659503 0.010721122 0.0943526 -0.14897324 -0.115269974 -0.14840062 0.018340727 -0.13040873 0.039597657 -0.122552335 0.040061917 0.16657007 -0.00703148 0.032712415 -0.12688577 -0.12348133 0.14586622 0.04233366 0.08677887 0.0035958227 -0.036855828 0.11427323 0.14370745 -0.0047742426 0.055430997 0.14889967 -0.07511227 0.07739641 0.23266299 0.0760338 0.18562074 0.0036483412 0.011918166 -0.09597566 0.024399279 -0.04399418 -0.1256978 0.19526836 -0.04352801 -0.117186755 0.092484206 -0.041803356 -0.025492914 0.067930266 0.029607404 0.01955218 -0.0069549545 -0.11409597 0.06339564 -0.02980983 0.020047605 -0.006394785 -0.07068556 -0.14494799 0.11731457 -0.02648578 -0.12195232 -0.19633564 0.081348136 0.11819924 0.1561461 -0.1946624 -0.018177448 0.027607668 0.06183001 0.11577259 -0.15787397 -0.070915796 -0.009469521 0.06863892 0.053163826 -0.039288756 -0.041349325 -0.045500845 0.17439324 -0.07072595 -0.066166855 -0.084757164 0.07462139 0.049292553 0.18510585 0.022184908 -0.07875982
268 -0.15285435 0.05742453 -0.10470732 0.08744112 0.01893779 0.02611558 0.07492 0.13644823 -0.060524315 0.028175443 0.015047132 0.0044248095 -0.013034719 -0.04416896 -0.046380926 -0.1242918 -0.039564572 0.01007005 -0.100894935 0.035290886 -0.0019798467 -0.053101946 0.034972355 -0.03172537 0.14530799 -0.08631268 0.030337155 -0.09393272 0.12722512 0.0065030744 -0.019009693 -0.10683351 -0.036747914 0.043682292 0.040119383 -0.08628917 0.12092944 0.018363222 -0.0077787647 0.066334784 -0.090054974 -0.026731236 0.0026170479 0.03624378 0.2019361 0.17252408 0.029166985 0.030625947 -0.012280072 -0.039976243 0.11878189 -0.097335614 -0.004136547 0.07230232 -0.06161373 0.04508802 0.07442497 -0.029398661 0.01267029 -0.14443557 0.075974345 0.036097724 -0.09208053 -0.01779307 -0.06589629 -0.12058499 -0.09789588 0.23793194 0.13226327 0.0056719882 0.046630044 -0.087472364 -0.13579085 -0.015983596 -0.11717844 0.119170904 0.07851529 -0.12593234 0.09692578 -0.037563745 -0.08115985 -0.04824825 0.09050056 0.013148937 -0.13624074 0.053244494 -0.14045767 -0.17055227 0.03746714 -0.0104128 -0.123792484 0.048222065 0.112307824 0.04630384 0.055128165 -0.03956581 0.12446139 0.008751125 0.110690646 -0.0007570802 -0.026033493 -0.17102814 -0.03793969 -0.13433948 0.07344018 0.046458922 0.113184154 0.012770329 0.05362596 0.064192414 0.06467815 -0.09395791 -0.10257458 -0.00024426854 -0.03717333 -0.060439877 2.0374662e-05 0.023860374 0.12784119 -0.07757587 0.058171645 0.018226713 -0.078010015 0.095754154 -0.06015412 0.081846416 0.15224119 0.10497358 0.19598366 0.08043918 0.00093459105 0.03397567 0.1356168 -0.19035617 0.07610123 0.063150026 -0.03970626 0.070685156 0.11491839 -0.043296393 -0.12913243 -0.0063031614 0.020408046 0.039485138 0.032472216 0.029284187 -0.10601839 0.052705564 -0.1806241 0.077214405 0.09097981 -0.11732808 -0.017775768 0.05782706 0.17734946 0.068293266 0.07011713 -0.032393068 -0.041550476 0.09242211 0.018582635 0.03535058 0.047403686 0.17875123 -0.0060664206 0.051733945 -0.07262826 -0.14748432 0.07677258 0.146172 0.05694948 -0.10308497 -0.016009286 0.051740084 0.079172134 0.14525187 -0.017630657 -0.0041022124 -0.03757843 0.019388018 0.020985205 -0.038481202 -0.040781733 0.07656345 0.04089801 -0.04965785 0.009410224 0.03698695 0.058420938 0.032615855 -0.10916279 0.045176852 0.15111588 0.060159616 -0.0037123351 0.13955642 0.0007267431 -0.11583722 0.12244321 -0.07156812 0.057363562 0.007991899 0.0068995887 -0.04808908 0.07326384 -0.13003518 0.08229403 -0.0851321 0.042812347 -0.005394789 -0.074961424 0.084363624 -0.10880507 -0.13447127 -0.01912032 -0.12856491 0.13952625 0.06598555 0.11898385 -0.06977535 -0.07149632 -0.06763555 0.08738289 0.107946515 -0.15862076 -0.03126775 -0.1358201 -0.08929791 -0.1194088 0.054895416 -0.07437845 0.10394203 -0.081285104 -0.11004949 0.08041518 0.03561984 -0.16757995 -0.18903586 -0.0118377935 0.07758493 0.10435709 -0.022872422 0.10160987 -0.033808034 -0.046226617 -0.068480015 -0.10147312 -0.17782737 0.06572748 -0.06810346 0.011451541 0.059729703 -0.050377406 -0.10542552 -0.11865668 -0.097681455 -0.08624828 -0.008010188 -0.06884046 -0.09644341 -0.1549568 -0.007195109 -0.10959388 0.045650464 -0.061589085 -0.06748782 0.030583872 0.048635725 -0.054930538 -0.1883273 -0.13356064 -0.15031548 0.106411755 0.14959618 -0.014640907 0.014285097 -0.014695742 -0.031943012 -0.19577262 0.0028146533 -0.04088352 -0.08091487 -0.042093303 0.06919583 0.1440304 0.04760824 -0.052409124 0.06809742 0.07406454 -0.06421097 -0.113239095 -0.021337464 -0.0054897876 0.13019401 0.2184176 0.041138064 -0.09104864 -0.030036628 -0.101836905 0.10243216
64 0.011596186 -0.09055488 -0.042383544 0.065539554 0.0898895 0.1350179 0.10271574 -0.06556618 -0.047253206 0.06844481 0.029304732 0.03350835 -0.045604583 -0.13137515 0.01086815 -0.05883326 0.13295867 -0.015069212 -0.07021036 0.10966643 0.067411944 0.169109 0.12446088 -0.11061091 0.06594119 0.017193196 -0.042915314 0.054176766 -0.11548653 0.06315039 0.13759421 0.110172234 0.02402717 0.034370653 0.2038098 -0.06889358 -0.120630346 -0.053758122 -0.1795328 0.06108649 0.08394704 0.14493474 0.10714632 0.004269611 0.084048055 -0.015730977 0.003400598 -0.030376991 -0.007549724 -0.03593114 -0.02601029 -0.17646095 0.17778528 0.08632181 0.048783805 -0.05012441 0.09444076 -0.004397357 0.016506586 0.0654838 -0.14883797 0.12237472 0.20989507 -0.12202552 0.03257822 0.06515338 0.10457032 0.049580485 0.06482976 -0.119448304 0.028995076 0.018893177 -0.023989499 0.08238616 -0.015232264 0.13097465 0.05213444 0.027658975 0.044181522 0.010242201 0.04999403 0.034766614 0.15875614 0.07849918 0.02834888 0.11357448 0.01727863 0.050548706 -0.06378934 0.028463973 0.034188654 0.12930219 0.14305101 0.032656614 0.047503952 0.030715136 0.14907251 0.07048562 0.12253745 0.071480714 -0.060365826 0.022550736 -0.17090647 0.07037491 -0.032965336 -0.040475577 0.063359454 -0.19082029 0.1735104 -0.064232156 0.021032142 0.13932239 -0.037702337 0.04823602 0.022876969 0.29192007 -0.008796709 -0.06599386 -0.105303325 -0.03012115 0.14061409 0.021424757 -0.119357005 0.19831358 0.040076427 -0.10541609 -0.10228805 -0.019658225 -0.054094292 0.09035972 0.0066902936 0.0326464 -0.07703973 0.032639217 -0.027472647 0.024910288 0.08401631 -0.007592551 -0.05955864 0.11190099 -0.01745473 -0.051681213 0.20676126 0.089512296 0.11067969 -0.1404574 -0.0251106 0.120904736 0.103666164 0.12517335 0.095347166 0.06210274 -0.0043944656 -0.020154633 -0.09177981 -0.01010757 0.017955963 0.072064795 0.102861956 -0.05412109 -0.04102148 -0.070569195 -0.16965427 -0.066710755 0.082910605 -0.03602164 -0.12826048 -0.05030797 0.1356927 -0.08763432 0.09540857 -0.05936502 0.01962166 0.026800886 -0.048837397 -0.034923933 -0.06318071 -0.008599783 0.08014561 -0.09743881 -0.087491445 0.07060637 -0.07115599 -0.0035644853 -0.09508207 -0.19381648 -0.18173182 0.16344945 0.061466113 0.090622425 -0.05825326 0.078224815 0.06914416 -0.040894907 0.02014417 -0.21168406 -0.00068290095 -0.021280494 0.045167245 -0.2603707 -0.28661272 -0.046178423 -0.081413895 0.15045218 0.15787046 -0.07095046 0.068987526 0.114833884 0.036769334 0.025192408 0.025851032 -0.1304512 0.0008540391 0.017769232 -0.12369448 -0.002476127 -0.011948368 0.004948513 0.079963975 0.0412549 -0.024889275 0.04789831 0.024100026 0.144615 0.17769274 0.021186978 0.14301187 0.03407922 0.03866948 -0.1443878 0.03742718 -0.02281818 0.068392016 -0.04396311 0.14511845 0.0493844 -0.17997554 -0.12802595 0.04581866 0.19855787 -0.1779527 0.07012698 0.19453844 -0.162586 0.00921631 -0.023025392 0.0017277694 -0.22827233 -0.062583216 0.051410187 0.09484376 -0.12102118 -0.07625697 0.09134751 0.01488405 -0.05378236 -0.1548983 0.12123802 0.100645356 0.089914374 0.038419817 0.025065051 0.037072077 -0.13855587 0.061845638 0.06267131 -0.05538 -0.006492815 -0.017234206 -0.040289152 -0.004998395 0.033260062 -0.016473778 0.014397761 0.04582803 -0.005983706 -0.13410535 -0.09993899 0.0073418613 0.00568949 0.03292673 -0.10479956 0.016208656 0.08605685 0.03858932 0.05717586 0.1352851 0.07834463 0.035784986 0.21481282 0.079678014 0.06911981 -0.10900693 -0.07705095 0.09004655 -0.08160841 0.2769547 -0.07912082 -0.034781255 -0.06905495
71 0.08597104 0.004488903 0.08987495 0.105359875 -0.06866096 -0.098710984 0.036883708 -0.049411383 0.043200213 0.0777356 -0.016890017 0.0035197872 0.22370897 -0.058758326 -0.1182134 -0.062806614 0.023617279 -0.0005439121 -0.060716998 0.18277937 -0.041242797 -0.0035688174 -0.010140209 0.050608072 0.092153646 0.025679987 0.09978798 -0.042993397 0.1662658 0.18345012 -0.007060952 0.12988311 0.08279827 -0.008601202 0.06577087 -0.06400151 -0.08630584 -0.013131031 -0.105363026 -0.088420555 0.09853273 -0.06677796 -0.07947185 -0.011173284 0.11572901 0.001951378 0.04865978 -0.12185486 -0.015788311 -0.11501523 -0.055611238 -0.04748716 0.0037742262 0.09016172 -0.006676292 0.019818366 0.052212935 -0.035979256 0.04371504 -0.06572648 0.07451918 0.12432038 0.08460452 -0.15220036 -0.050512753 -0.056927063 -0.1571821 -0.07677091 -0.013914156 0.020866994 0.055475913 0.027958015 -0.044721678 0.022650387 -0.007235668 -0.0891669 -0.056571133 0.02533939 0.13958068 -0.09827444 0.09046814 0.06109397 0.11820227 0.03626906 -0.1510101 -0.10329373 0.0593959 -0.13558845 0.09745547 0.02181212 -0.11103605 0.052709173 0.104356654 -0.059041824 0.09163789 -0.13549826 -0.056759313 -0.054076463 -0.04241748 -0.12717804 0.05678244 -0.18876414 0.027651422 0.078716785 0.09827022 0.1800932 0.07492551 -0.05746908 0.025252935 0.064184636 -0.07107979 -0.0051748897 -0.05819737 0.04489766 0.058344733 0.053282052 -0.07182308 0.09644609 0.028631153 0.05876363 0.00047617528 0.0938766 -0.1135903 0.1295941 0.011978896 0.00093602104 0.0666249 0.15535466 -0.0146709215 -0.019067949 0.040019352 -0.086643204 -0.0006286614 -0.07198797 0.10986058 -0.036278397 0.029452622 0.013097285 -0.0024646837 -0.009219658 0.109259635 -0.07915384 -0.017497739 -0.010461351 0.012179003 0.036879208 0.043053534 0.11789182 -0.07749311 0.014194477 0.045226023 -0.011276413 -0.07803574 0.03545422 0.0224359 0.11407375 0.12886648 -0.04591521 0.10945292 0.11598331 -0.15167277 -0.037948053 -0.10933308 0.0055891164 0.050342288 -0.02397052 -0.02701852 -0.14488485 0.0029261666 0.028352221 0.13070455 -0.1181561 -0.05684561 0.036711037 0.20121092 0.021112388 0.009944488 0.13427001 -0.0975572 0.031921532 -0.09521645 -0.04582549 -0.07427297 0.02598077 -0.0013751277 0.057813797 -0.0047184257 0.033808295 0.06408449 -0.14064917 -0.12486452 0.16719906 0.01605125 0.02767324 -0.060306665 -0.04691933 -0.074096605 0.0009745996 0.0036088678 -0.045028497 -0.013783298 0.053901773 -0.053384867 -0.061070107 0.20821352 0.09508978 0.016468465 0.14881308 0.166212 0.15938996 0.03076408 0.014748623 -0.03817437 -0.058971435 -0.093699284 -0.18581569 -0.031237243 -0.043140225 0.006304298 -0.017321538 -0.020890301 -0.020528853 0.09473194 0.18644708 0.07029748 -0.13931921 0.072002016 -0.10689461 0.04927211 0.11747967 0.17724761 -0.009468402 -0.091795295 0.030323133 -0.03345825 -0.028626299 -0.020107284 -0.060920704 0.11322155 0.0010580978 -0.09619155 -0.03243065 0.21837762 -0.13067769 0.008472126 0.049843002 0.008067788 -0.045441974 -0.018927833 -0.022969166 -0.06823946 -0.026782364 -0.01522744 -0.03426554 0.07972098 -0.035231225 0.14540097 0.10184693 -0.05343365 0.10567131 -0.20959248 -0.0028057576 -0.11512831 -0.08559109 0.036867753 -0.1062126 -0.06044346 -0.036370542 -0.07525231 -0.05265978 -0.09145019 0.14404272 0.10513324 0.13051087 0.026848096 0.07488088 0.09991118 -0.045177262 0.025380095 0.07710649 -0.16684444 0.080346994 -0.113344766 0.030554608 0.06103087 -0.0051431945 0.036270455 -0.0017473479 -0.1741825 0.017292174 0.0077321236 0.07987327 0.104173295 0.0036474634 0.043479074 0.09619811 0.120078616 -0.118253164 -0.030077316 0.06692048
80 0.044312704 -0.0041457014 0.044354893 0.054208357 -0.0035308267 -0.0081832465 0.1343854 -0.11229357 0.003944904 0.07172296 0.011056739 -0.0303614 0.04613384 -0.120084204 -0.05043769 -0.13184328 0.021626856 -0.033913765 -0.1203215 0.062469926 -0.024963913 0.053743552 -0.027948283 -0.029024597 0.084552675 0.10567822 0.021541897 -0.08145214 0.10388222 0.12310873 -0.043654855 0.021113278 0.009191914 -0.02231767 0.10582774 -0.06294667 -0.09718743 -0.058219265 -0.1756252 0.031940203 -0.07309004 0.067537606 -0.06390303 0.022767462 0.16543882 0.026135612 0.14608108 -0.10920414 -0.034241196 -0.12744325 -0.026292538 -0.026647976 0.0053159534 -0.0016823377 0.09809793 0.16994746 -0.033168085 -0.022024294 0.11711348 -0.1415319 0.07918314 0.059230115 0.11409237 -0.24149138 -0.0036185505 -0.025104428 -0.027237153 -0.06503661 0.055380855 0.043857604 -0.0034572298 -0.10012776 0.053718407 -0.07983009 -0.016824124 -0.0076604425 -0.072202444 -0.13664147 0.046887785 -0.019581923 0.11684724 -0.0072718784 0.15821171 0.14964992 -0.09292488 0.01810248 -0.0051437835 -0.18382189 0.14458783 -0.0197956 -0.05874984 0.048664328 0.02265315 -0.15442435 0.062927336 -0.10062422 -0.07443888 -0.11138314 -0.049336806 -0.015463498 0.052033726 -0.061578285 -0.10482778 0.036602344 0.03706267 0.045271765 0.07403681 -0.046695758 0.15935674 0.11947968 -0.082102515 -0.012198594 -0.06664379 0.016637772 -0.008070151 0.1031108 -0.04386653 0.08604235 0.0987066 0.027035184 -0.06582042 0.028773181 -0.09719003 0.086478435 -0.07471086 -0.016278328 0.12428482 0.08485194 0.023656422 0.08370165 0.043870132 -0.09352692 0.039614134 -0.018497046 0.01027847 -0.094579004 0.078750886 -0.045370545 0.04732826 -0.042461295 0.07163131 -0.0070459573 0.028976992 -0.0489156 0.03251133 0.044037577 0.061030317 0.0916173 -0.013026195 0.10831102 -0.006744314 0.035762195 0.0025107288 0.088377334 0.036605276 0.14368737 0.20846295 0.027006924 0.105453975 0.07878721 -0.09890388 0.0016667615 -0.045748398 -0.04290718 -0.0468805 0.022878828 -0.09852198 -0.12461999 0.041650236 0.07501853 0.095886014 -0.11776242 -0.030537494 -0.07078384 0.09175243 -0.054498903 0.058876447 0.1290485 -0.09254031 0.10194016 -0.07561898 -0.074488655 -0.108480506 0.0016662166 -0.048404668 -0.0003395674 0.038074996 0.061225835 0.09045102 -0.11544972 -0.0058884663 0.03337345 0.036308963 -0.0039498913 0.064293444 -0.07762094 0.021343756 -0.11443727 0.0824253 -0.13208582 -0.039609164 0.11151144 -0.053856105 -0.078199565 0.025312083 -0.0759425 -0.002579202 0.124859236 0.11637353 0.13868976 0.03278184 -0.15854897 -0.018277839 0.031534355 -0.11208006 -0.109171346 -0.05387501 -0.05980904 -0.030488217 -0.036746886 -0.008622746 -0.02601565 -8.423123e-05 0.18130374 0.12418453 -0.11161563 0.022108203 0.004428689 -0.02104417 0.06917437 0.16149655 0.14337495 0.017083073 0.052607026 0.051952843 0.13250344 -0.004222915 0.040590275 0.14800158 0.020380352 -0.12914307 -0.07669775 0.16278677 -0.109872475 0.020876862 0.033591267 0.056903955 -0.18275 -0.083785355 0.05707702 0.01022925 0.0054096514 0.0008262441 -0.12726076 0.02360258 -0.11529666 0.073786475 0.13487783 -0.09149458 0.13025586 -0.07121246 -0.014594626 -0.12824012 -0.07027753 0.009076322 -0.03036088 -0.0040421723 -0.01741129 -0.082021534 -0.030053956 -0.023852088 0.09671139 -0.12764302 0.12285227 0.017911775 0.14893368 0.042501144 -0.0032275966 0.03303155 0.045584306 -0.100011565 0.20949133 -0.14327686 -0.059710138 0.059805 -0.11049376 0.02800182 -0.0001403231 -0.12892525 0.10397251 0.036507685 0.09704086 0.056133278 -0.052325863 0.06491533 0.030449362 0.08734987 -0.0703339 -0.04017839 0.11067163
107 0.11248255 -0.10476126 0.0008535208 0.02374767 0.018800437 -0.16109866 0.052796897 -0.13257414 0.08335382 -0.001821841 0.1123438 0.028606836 0.105197996 -0.08055981 0.051288795 0.026755376 0.056171104 0.057516802 -0.122675285 0.10879533 0.008777364 -0.08181063 -0.089377515 0.07359793 0.12178295 -0.062829144 0.05471503 -0.11223636 0.03665738 0.02782491 -0.01832414 0.0764508 -0.066085935 -0.0969377 0.091352895 0.008839508 -0.028072892 0.04232784 -0.03244172 0.07111927 -0.13043702 0.037672088 -0.009505175 -0.062565535 0.16106772 0.042433336 0.047068402 -0.10512416 -0.10317016 0.04661933 -0.004520773 0.06399273 -0.017917471 0.08134165 0.025169635 0.096300475 -0.12278398 -0.038494255 -0.09894731 -0.12955162 -0.025832016 0.03167541 -0.0012807908 -0.07979665 -0.07679695 -0.13065147 -0.105838984 -0.061723016 0.12008072 0.109065026 0.0017794563 -0.03386523 -0.08558595 0.0023405752 0.08563158 -0.13660741 -0.14018092 0.032892946 -0.038907085 -0.045092706 0.15883175 -0.06665741 0.047768816 0.07075399 -0.0528031 0.02050835 0.038461313 -0.14740501 0.037446823 -0.013388667 -0.0069456357 0.07538699 0.06653096 0.012419557 0.118776895 -0.1211209 -0.113355756 -0.03511211 0.014033729 -0.050610162 -0.094243415 -0.12291872 0.04795223 0.112945765 0.0059224847 -0.006834259 -0.03627327 -0.1436614 0.1997081 0.019536363 -0.21720423 0.08677338 0.008711464 0.026971843 -0.01908445 0.030057918 -0.012411466 0.13882914 -0.02560856 0.0036638156 -0.12666051 -0.017387716 -0.051046032 0.14679176 0.057194375 0.031640656 0.041823093 0.103468426 -0.03698409 0.09126352 0.08553542 -0.11604224 0.036387622 0.07140517 -0.060075562 -0.04828883 0.05358193 0.0049735284 0.057014793 -0.007705452 0.07801822 -0.089066885 0.042136677 -0.10423657 -0.047062922 0.07494329 0.017861279 0.14199577 -0.04528976 0.120188236 0.09211353 -0.07427563 -0.13256009 0.0820708 -0.02581619 -0.004212344 0.1901793 0.14727576 0.06697863 0.073883705 -0.008807082 -0.081525214 -0.08379909 0.043897834 0.060356278 -0.12414418 0.1275371 -0.10739653 -0.12505445 -0.018749459 0.15421368 0.011552543 0.029279746 -0.047902986 0.092237145 -0.04693953 -0.028639523 0.16887355 0.0053666355 0.04178614 -0.1140922 -0.063679315 -0.101637565 0.06629693 0.050678294 -0.007227237 -0.11040463 0.122146174 0.074010305 -0.08971823 -0.11143513 0.21240449 -0.04851376 -0.17523903 -0.01756304 -0.10399578 0.032954678 -0.22811118 -0.061972924 -0.2155409 -0.00075594475 0.00034519698 -0.013998925 -0.13331325 0.090280876 -0.09300596 0.0927753 0.10976737 0.09712552 0.09148019 0.025018604 -0.07361041 0.0027536931 -0.06604378 0.04571464 -0.019049512 -0.03578909 -0.061221592 -0.058974486 0.042369496 -0.091616854 -0.054368667 0.078061365 0.18217893 0.0073452517 -0.2389538 0.15126793 -0.111127906 -0.015677877 -0.07634082 0.21903382 0.0529561 -0.10758405 0.021765226 -0.03244401 -0.022504011 -0.17852883 -0.1483562 0.099131964 -0.0441189 -0.016699003 -0.13967972 0.2228405 -0.17928451 0.016636465 -0.01920355 0.0996427 -0.0548567 -0.07879818 0.07606141 0.036464777 0.02893437 -0.025175145 -0.13154262 0.139153 -0.026717972 -0.03936213 0.0051909275 0.007531091 -0.033156957 -0.15683202 0.10092082 -0.11744462 -0.041927803 0.2091945 -0.14131607 0.074807845 -0.025026754 -0.042234056 -0.10156083 0.029217985 0.18277998 -0.052123066 0.04680944 -0.040491316 0.08204407 -0.0078330245 -0.029506704 0.011209069 0.03924719 -0.079282954 0.0824193 -0.121496245 -0.10003361 -0.025380386 0.012038961 0.014347984 0.08183568 -0.065258764 0.10519333 0.091928124 0.098962314 0.0054756603 0.0787949 -0.012414215 -0.10739767 -0.019217668 -0.033381067 -0.06669199 0.12115259
252 0.10300601 -0.0016702237 0.0004330571 0.00784752 -0.036996383 -0.073241465 0.081148416 -0.0879681 0.0043625697 0.055013645 0.18013476 0.010993331 0.07451215 -0.13689245 -0.028777272 -0.10096247 0.06435999 0.09493203 -0.08036421 0.07404381 -0.08843934 0.00051037845 0.05664301 0.033390842 0.111084774 0.04903168 0.020734895 -0.08594081 0.060167797 0.091819294 0.041161098 0.08708743 -0.017802613 -0.049760744 0.13781415 -0.105947495 -0.13488096 -0.05767386 -0.05887944 0.023299405 0.038398232 0.025946548 -0.10240325 -0.0608814 0.10104477 0.04319159 0.08565561 -0.062268164 -0.002289764 -0.10789965 -0.08145322 -0.10405506 0.027172452 0.09903827 0.076847136 0.10698493 -0.024422562 0.008097955 0.028742326 -0.12416144 0.05711927 0.029401146 0.13469118 -0.1604417 -0.0737427 0.018012038 -0.027821744 -0.048398588 -0.013463181 -0.005306501 -0.0032937475 -0.03344805 -0.017033482 0.009603875 0.026814956 0.0013583637 -0.10099505 -0.07696115 0.058037024 -0.088811144 0.07857436 -0.011609291 0.14326385 0.030393343 -0.051694885 0.016874066 -0.0056744833 -0.08131038 0.027425537 0.04788135 -0.066968605 -0.06299557 0.069228 -0.07043148 0.037460003 -0.07063848 -0.06839016 -0.024278767 -0.016053617 -0.0739652 0.08190729 -0.061453514 -0.040032323 0.062079407 -0.06630566 0.11102813 -0.00850621 -0.07069092 0.05783292 0.074898645 -0.11839504 0.022034485 -0.011120371 -0.007938267 -0.061072756 0.18528478 -0.07708991 0.05410412 0.10978474 0.045352947 -0.07104151 0.12589516 -0.04368058 0.05079189 -0.049849417 -0.021327322 0.0075861933 0.10552347 -0.103313714 0.061114904 0.054612167 -0.15536468 -0.018000664 0.01591191 0.10697003 -0.08444632 -0.022242023 0.014331223 -0.046541166 0.01275242 0.091603555 0.052208636 0.04188468 -0.0038181583 0.067777954 0.023335839 0.10140752 0.051565908 -0.1086134 0.050255924 0.015943343 0.049354915 0.036950324 0.14263824 -0.051679455 0.086349964 0.10760212 -0.012754466 0.108750746 0.10374787 -0.06058644 -0.027862158 -0.145653 -0.029092235 0.019204319 -0.00035748613 -0.07916874 -0.13658926 0.052913617 -0.04000731 0.008617216 -0.09998393 0.0053858384 -0.0757059 0.09286324 -0.048484597 0.008668446 0.14432769 -0.04212929 0.07122373 -0.07043248 -0.14451559 -0.07408422 0.08513173 -0.05421847 -0.008972333 -0.057225376 0.07987094 0.06163253 -0.08021727 -0.10535738 0.08135821 0.04499837 -0.0064705824 0.018894605 -0.0106066875 0.069153145 -0.0006493686 0.030154876 -0.100387186 0.006877115 -0.006219117 0.023950318 0.014465712 0.0007814489 0.0013161483 -0.05427503 0.107401974 0.020107176 0.097404204 -0.047288075 -0.04175077 -0.011255948 0.0074206446 -0.056815326 -0.116568916 -0.07463956 -0.025064941 0.011632803 0.11838442 0.0036523978 0.026162997 0.04897222 0.10399763 0.07694248 -0.054730654 0.068141975 -0.010746207 -0.05263618 0.009862379 0.15045246 0.097965956 -0.09643524 0.029171508 -0.015101432 -0.021430472 -0.024880413 -0.048965927 0.11735532 0.016762355 -0.04820692 -0.05433885 0.09147965 -0.15045863 -0.047006182 -0.039502732 0.09414008 -0.1352291 -0.07060485 0.06927401 -0.022053065 -0.054090574 0.0059130173 -0.15773457 0.024936892 0.015466915 0.028651465 0.10683203 -0.08233113 0.17823645 -0.21364239 0.012181189 -0.121242315 -0.044932038 0.06762681 -0.19353014 0.049510773 0.027831344 -0.024612715 -0.027383843 -0.101951644 0.050037757 -0.04044736 0.09163754 -0.0020276285 0.1045915 0.039888483 -0.088375024 0.12558243 0.062392663 -0.0073779062 0.08322779 -0.038817607 -0.100504234 -0.015700871 -0.06098672 0.06421861 0.074508496 -0.062859215 0.02083489 -0.031831928 0.05780885 0.020818623 -0.049651716 -0.010775486 0.059032045 0.038908206 -0.10564362 -0.066560715 0.0033363313
298 0.0028716414 -0.013711493 0.07434454 0.03264425 -0.16397092 -0.072931625 0.02949715 0.007278608 -0.07473955 0.032108407 -0.016874181 -0.072072886 -0.027005557 -0.032453686 -0.07851561 -0.052205205 0.076363534 0.11507973 -0.02356889 0.15546262 -0.062545046 0.0576067 -0.08794019 0.013850877 0.049616184 0.03330317 0.09665417 -0.1520123 0.22396012 0.08585996 -0.008695509 0.066765755 -0.00020426715 -0.009123917 0.008705894 -0.024182502 -0.06518447 -0.00113794 -0.12869301 -0.025908006 0.16776095 0.0012800577 -0.07264801 -0.09501709 0.1524112 -0.014137184 0.13286392 0.036439955 -0.082924955 0.062355142 -0.027838998 -0.14048924 0.15024054 0.13784516 -0.02540304 0.03783611 0.003743681 -0.064214624 0.031411733 -0.09792699 0.14621264 0.10114775 0.07947614 -0.08277125 -0.028191205 -0.14110859 -0.1834614 -0.07521566 -0.054129403 0.05974432 0.043318406 0.03962219 -0.01026691 0.007486403 -0.016329708 -0.16146 0.07848916 0.015661856 0.053017143 -0.09367196 0.18303783 0.14050105 0.032696895 0.025013149 0.033776477 -0.05462095 0.16258907 -0.07345084 0.06939206 -0.030291712 0.005382375 0.03158976 0.061341114 -0.12933865 0.030462967 -0.036066115 -0.16516729 -0.094184466 -0.0082833655 -0.17393847 0.06242721 -0.08538739 0.07612104 0.051576518 -0.004647409 0.08953277 0.09416007 -0.009215808 0.090465255 0.042128097 -0.06923542 -0.12056166 -0.07727605 -0.01894451 -0.015756495 0.16921143 -0.15856251 0.023106469 -0.055290233 -0.022299917 -0.06536801 -0.013431124 -0.002191736 0.10923322 -0.085429266 0.004758534 0.07551704 0.17991038 -0.012852573 0.13246028 0.10371425 0.042809263 -0.014724099 -0.029518737 0.099394105 0.03218445 -0.020718548 0.05412478 0.026887836 -0.05260352 0.12675428 0.062899254 0.050446376 -0.03562991 -0.020602379 0.14106278 0.11376409 0.03341071 0.116291836 0.11869968 0.011620425 -0.010944711 -0.16100062 -0.017524658 -0.0063396883 0.1007024 -0.01487811 -0.008644496 0.010825645 0.10900387 -0.17843044 -0.07111362 0.05201726 0.12707113 0.069402024 0.031274363 -0.18543491 -0.16672185 0.031479586 0.10690536 0.02750826 -0.17362621 -0.11511909 0.020377561 0.10017917 -0.15722683 0.07936298 0.08674379 -0.0016514938 -0.05141449 0.017882828 -0.04976608 -0.19672103 -0.042040467 0.0044579916 -0.0845152 0.0269612 0.086035386 0.041593272 -0.10483783 -0.07478262 -0.035943598 0.08540561 -0.038351875 -0.117743336 -0.046435416 -0.06390231 -0.0006200673 -0.060673233 0.006604327 0.04062651 0.0060300734 -0.14751048 -0.05144643 0.078117035 -0.0334637 0.08438623 0.028377043 0.12144264 0.1788069 0.11506373 -0.26145813 -0.021301312 0.032008797 -0.103489906 -0.13318504 -0.067358576 0.04286853 -0.062043592 0.019229736 -0.011253977 -0.03669301 0.06300109 0.1541861 0.04119457 -0.09418079 0.003455903 0.024607347 0.0026535213 0.096216775 -0.0223574 0.009104068 0.026717518 -0.048053004 -0.036978494 0.022633972 -0.10539343 0.015771937 -0.0057262643 -0.02588712 -0.14107923 -0.09060448 0.22787103 -0.08507116 -0.11504498 -0.07803406 -0.020323936 -0.18441159 -0.09690416 0.17074218 -0.052556727 0.1064528 -0.17794171 -0.055571724 -0.0069781616 -0.077227555 0.0033134122 -0.025291331 0.028389437 0.11651475 -0.06822341 -0.011315893 -0.033582736 -0.20945382 0.1621174 -0.144798 0.0045480896 -0.052032404 0.087044336 0.009685116 -0.0039624115 0.18007354 0.19684298 -0.049778923 -0.0037165442 0.19101183 0.012874891 -0.09514362 -0.12775244 0.11482573 0.03272458 0.2008154 -0.02272715 0.07870767 0.04794055 -0.06062326 0.04634625 0.15895961 -0.0389622 -0.045474797 0.0020107704 0.11907681 0.011420135 -0.07679305 -0.0784951 -0.018105963 0.3079672 -0.10434576 0.056209054 0.117904484
